{"c1_conv.weight": [[[[-0.18625672161579132, 0.12164947390556335, 0.28283774852752686, 0.1366281509399414, -0.31471505761146545], [-0.9849349856376648, -1.2709481716156006, -1.3638182878494263, -1.273634433746338, -0.9547603726387024], [-0.4422719180583954, -0.9712236523628235, -1.1043165922164917, -0.5226085186004639, -0.08289636671543121], [-0.11785562336444855, 0.03519774228334427, 0.21452802419662476, 0.24267874658107758, 0.23471735417842865], [0.43374404311180115, 0.24767331779003143, 0.6081977486610413, 0.7003286480903625, 0.2977067530155182]]], [[[-0.28819921612739563, -0.08588209003210068, 0.09558380395174026, 0.08759216219186783, 0.35010644793510437], [0.05582226440310478, 0.29467299580574036, 0.46775057911872864, 0.6537282466888428, 0.8075094223022461], [0.7263780236244202, 0.8086634874343872, 1.216670274734497, 1.1215027570724487, 0.7865989804267883], [0.7449859380722046, 0.9878804683685303, 0.7503673434257507, 0.9154762029647827, 0.7400820851325989], [-0.010096085257828236, 0.2130284458398819, 0.21491564810276031, 0.22889068722724915, 0.05436592176556587]]], [[[-0.16840489208698273, -0.6784942150115967, -0.30909547209739685, 0.16660895943641663, 0.57142174243927], [-0.3022608160972595, -1.0786144733428955, -0.47275352478027344, -0.04030122607946396, 0.6172876954078674], [-1.0556714534759521, -1.1493247747421265, -0.5655809044837952, 0.38126271963119507, 0.7780404686927795], [-1.3300679922103882, -0.8034970760345459, -0.1392781287431717, 0.6626273989677429, 0.5703364014625549], [-1.291945457458496, -0.4047662913799286, 0.1410357803106308, 0.7633165121078491, 0.2938949167728424]]], [[[-0.5993830561637878, -0.5744267702102661, -1.0903180837631226, -0.9338282942771912, -0.3368682563304901], [-0.2242511659860611, -1.0298359394073486, -1.1897891759872437, -0.5147291421890259, 0.33473071455955505], [-0.001009828527458012, -0.5298585891723633, -0.53615403175354, 0.16834241151809692, 0.5032496452331543], [0.1343650072813034, 0.6366848349571228, 0.6754391193389893, 0.5760469436645508, 0.5322897434234619], [0.7070716619491577, 0.9300448894500732, 0.8466358184814453, 0.34606799483299255, 0.545548677444458]]], [[[0.5908886790275574, 1.0414561033248901, 0.8802652955055237, 0.9835813641548157, 0.764862596988678], [0.6722609400749207, 0.4278610646724701, 0.33689674735069275, 0.3649665415287018, 0.23800641298294067], [0.11762754619121552, -0.4235214293003082, -0.5224936008453369, -0.7913985848426819, -0.6558511853218079], [-0.4842143952846527, -1.2213057279586792, -1.4514532089233398, -1.003821611404419, -0.7579103708267212], [-0.562558650970459, -0.8766828179359436, -0.4520789384841919, -0.04703426733613014, 0.08802196383476257]]], [[[-0.2775435149669647, 0.31706541776657104, 0.34196558594703674, 0.519663393497467, 0.43680912256240845], [0.5340425372123718, 0.690970778465271, 0.7648576498031616, 0.9016535878181458, 0.6019529104232788], [0.36330199241638184, 0.6152722239494324, 0.3403641879558563, 0.2835308611392975, 0.24185743927955627], [-0.2434372454881668, 0.42786601185798645, -0.004553750157356262, -0.2106291800737381, -0.4356291890144348], [-0.6456652879714966, -0.5134215354919434, -0.9190183281898499, -1.0321950912475586, -1.2676477432250977]]]], "c1_conv.bias": [0.5034031867980957, -0.5887758135795593, -0.39264190196990967, -0.6981087327003479, -0.23594693839550018, -0.5700398683547974], "c3_conv.weight": [[[[-0.2708556056022644, -0.22708967328071594, -0.14809970557689667, -0.061407726258039474, -0.3220573961734772], [-0.1346697360277176, -0.3062272369861603, -0.030741050839424133, -0.009385964833199978, -0.22245289385318756], [0.5462414622306824, 0.4015791714191437, 0.41028934717178345, 0.43263816833496094, 0.4466230869293213], [0.4027712047100067, 0.335229754447937, 0.34659603238105774, 0.2771250605583191, 0.10413537919521332], [-0.1623358130455017, 0.018079550936818123, -0.08083682507276535, -0.15822649002075195, -0.018770983442664146]], [[0.07620269805192947, 0.16793176531791687, 0.06086967885494232, -0.010593282990157604, 0.013199638575315475], [-0.19512173533439636, -0.09010979533195496, -0.14630335569381714, -0.2590012848377228, -0.16782498359680176], [-0.3453231155872345, -0.3936411738395691, -0.324039489030838, -0.23426847159862518, -0.1702076643705368], [-0.20326070487499237, -0.250511109828949, -0.2879429757595062, -0.2249758541584015, -0.20358116924762726], [-0.07262971252202988, -0.13703246414661407, -0.17409849166870117, -0.054729629307985306, -0.14267906546592712]], [[0.024417856708168983, -0.20318849384784698, -0.17376190423965454, -0.2163809984922409, -0.1733892410993576], [0.008007654920220375, -0.08753632009029388, -0.2224029302597046, -0.10552777349948883, 0.0039308760315179825], [0.0043861716985702515, -0.002505464479327202, -0.013653344474732876, 0.1226494088768959, 0.24142307043075562], [-0.3486853837966919, 0.1846514493227005, 0.25939157605171204, 0.1125577762722969, -0.1366911083459854], [-0.3767210841178894, 0.29304736852645874, 0.25854116678237915, -0.31814396381378174, -0.5160152912139893]], [[-0.05411217734217644, -0.02234436757862568, 0.12023115158081055, 0.11744101345539093, 0.1278047114610672], [-0.6281768679618835, -0.7449783682823181, -0.5881381034851074, -0.5574026107788086, -0.49815574288368225], [-0.08875031024217606, -0.1436057686805725, 0.006443334277719259, 0.2671595513820648, 0.3925262689590454], [0.048036567866802216, 0.18565033376216888, 0.3523296117782593, 0.27352866530418396, 0.15543067455291748], [-0.011580778285861015, 0.0807393416762352, 0.16906902194023132, 0.04240935295820236, -0.44778212904930115]], [[-0.4579082131385803, -0.4032668173313141, -0.2178579717874527, -0.10392487794160843, -0.10469368100166321], [0.5181702375411987, 0.5914928913116455, 0.6252192258834839, 0.787864625453949, 0.6232474446296692], [0.4133850932121277, 0.5441016554832458, 0.5263051986694336, 0.48451048135757446, 0.317914754152298], [-0.08374834060668945, 0.040715403854846954, 0.05293969810009003, 0.07085291296243668, 0.23977328836917877], [-0.14709238708019257, -0.22086279094219208, -0.30226147174835205, 0.012751122005283833, 0.29431548714637756]], [[0.06789474934339523, 0.1903202086687088, 0.17137746512889862, 0.27994030714035034, 0.2725311815738678], [0.13456343114376068, 0.23524846136569977, 0.04445277899503708, 0.118238165974617, 0.12511494755744934], [-0.32739949226379395, -0.30487796664237976, -0.3319094479084015, -0.3283999264240265, -0.288142591714859], [-0.45097973942756653, -0.3421195447444916, -0.42440950870513916, -0.2731717824935913, -0.003954586107283831], [-0.06123923882842064, -0.2399449646472931, -0.1048872172832489, -0.029910273849964142, 0.0433768704533577]]], [[[-0.44894540309906006, -0.4309505522251129, -0.14474543929100037, -0.281252920627594, -0.10396167635917664], [-0.1753101646900177, -0.013854378834366798, 0.2474861592054367, 0.4991283714771271, 0.4820614755153656], [-0.2680758833885193, -0.10848972201347351, 0.37687158584594727, 0.5367757081985474, 0.30968335270881653], [-0.29606297612190247, 0.010528470389544964, 0.295076847076416, -0.04164307937026024, -0.35137882828712463], [-0.3351360857486725, -0.2319929450750351, -0.26894667744636536, -0.48572251200675964, 0.18687768280506134]], [[0.19246011972427368, 0.07577311247587204, -0.2154790461063385, -0.12231749296188354, -0.14898601174354553], [0.00997528899461031, -0.016734538599848747, -0.3997650146484375, -0.300714373588562, -0.3253304958343506], [0.05188960209488869, -0.10480716079473495, -0.3701356053352356, 0.0318765863776207, -0.07732285559177399], [-0.1727447211742401, 0.01752748340368271, 0.0512966513633728, 0.3000495731830597, 0.0354977548122406], [-0.02181416004896164, -0.009682741947472095, 0.16525574028491974, 0.1695774495601654, -0.15450884401798248]], [[-0.09716489166021347, -0.49930429458618164, -0.4567893147468567, -0.4357500374317169, -0.11529030650854111], [-0.36999571323394775, -0.6173050403594971, -0.387356162071228, 0.10958536714315414, 0.11146828532218933], [-0.12203989923000336, -0.24903355538845062, 0.23579517006874084, 0.6219505071640015, 0.16497093439102173], [-0.020317312330007553, 0.28084924817085266, 0.8203529119491577, 0.4252012073993683, -0.3831997513771057], [-0.17799419164657593, 0.2921160161495209, 0.6637274026870728, -0.12523825466632843, -0.5012760758399963]], [[-0.07071813941001892, -0.3133884072303772, -0.4968864321708679, -0.4992566406726837, -0.4300077259540558], [-0.18317987024784088, -0.318424254655838, -0.5616368651390076, 0.00173085811547935, 0.028745125979185104], [-0.5828932523727417, -0.4919247031211853, 0.08942439407110214, 0.5323926210403442, 0.4470739960670471], [-0.41595694422721863, -0.06249571219086647, 0.1985865980386734, 0.31968963146209717, -0.4959881007671356], [-0.03661198914051056, 0.21695655584335327, 0.38066980242729187, -0.18644990026950836, -0.4214745759963989]], [[-0.41128459572792053, 0.08756030350923538, 0.22557014226913452, 0.45497962832450867, 0.5156099796295166], [-0.021538611501455307, 0.39976218342781067, 0.49825164675712585, 0.8264952898025513, 0.5127134323120117], [0.2089962363243103, 0.34368982911109924, 0.1479267030954361, -0.14803527295589447, -0.07247626781463623], [-0.06603960692882538, 0.13301245868206024, -0.4137782156467438, -0.16286715865135193, 0.8031594753265381], [-0.4896334409713745, -0.37593090534210205, -0.8444013595581055, -0.13570646941661835, 0.19190555810928345]], [[0.10058078914880753, 0.3579457700252533, 0.3254351317882538, 0.2082623988389969, 0.37219375371932983], [0.3078758716583252, 0.2125862091779709, -0.1323898732662201, -0.16154900193214417, -0.408982515335083], [0.03236788883805275, -0.06164927780628204, -0.40418970584869385, -0.2552030086517334, 0.033360518515110016], [0.07377567887306213, -0.26000526547431946, -0.4227601885795593, 0.12822498381137848, 0.2958807051181793], [-0.16824418306350708, -0.20766815543174744, 0.03143997862935066, 0.1866101175546646, -0.19065718352794647]]], [[[-0.14839832484722137, -0.2043086737394333, -0.2698332667350769, -0.02622198686003685, 0.29190507531166077], [0.06771183013916016, -0.10868708044290543, -0.469024658203125, -0.5703367590904236, -0.10027163475751877], [0.40915653109550476, 0.21302853524684906, -0.3963235914707184, -0.8130167722702026, -0.612956702709198], [0.29687070846557617, 0.292588472366333, 0.09742817282676697, -0.5773584842681885, -0.6006776094436646], [0.3910672068595886, 0.41074469685554504, 0.12703455984592438, -0.2309885174036026, -0.1698479950428009]], [[0.034427057951688766, 0.17986340820789337, 0.28395846486091614, 0.271806001663208, -0.0721195712685585], [0.037038154900074005, 0.16083531081676483, 0.215577632188797, 0.4920646846294403, 0.24508853256702423], [-0.10329258441925049, -0.3301225006580353, -0.09606166183948517, 0.3776402175426483, 0.23058190941810608], [-0.2413596510887146, -0.5000989437103271, -0.25099676847457886, 0.39229127764701843, 0.4054130017757416], [-0.07378717511892319, -0.4069596529006958, -0.19237619638442993, 0.18951772153377533, 0.1237894743680954]], [[0.037762973457574844, 0.011202683672308922, -0.23281338810920715, -0.3725457787513733, -0.25511589646339417], [0.2964019775390625, 0.25027549266815186, 0.22024430334568024, -0.06983236223459244, -0.5324966311454773], [0.15988817811012268, 0.12843269109725952, 0.443767249584198, 0.2100558578968048, -0.2781727910041809], [-0.14647068083286285, 0.023629607632756233, 0.36301884055137634, 0.5142418146133423, 0.057253047823905945], [0.06803924590349197, 0.007297639735043049, 0.010373394936323166, 0.42694395780563354, 0.1597195714712143]], [[0.07493200153112411, 0.26260507106781006, 0.25850680470466614, 0.3444250822067261, 0.08507397025823593], [-0.25909167528152466, -0.3006722033023834, -0.21185776591300964, 0.04148295894265175, -0.039480164647102356], [0.058995407074689865, -0.3273417055606842, -0.37075257301330566, -0.4074134826660156, -0.37162819504737854], [-0.12462101131677628, -0.14645084738731384, 0.15559807419776917, -0.3286682963371277, -0.70447838306427], [0.38585740327835083, 0.3485930263996124, 0.21268165111541748, -0.2402222454547882, -0.5386790633201599]], [[0.007885156199336052, -0.2630287706851959, -0.6038110852241516, -0.6474015712738037, -0.18673904240131378], [0.2019655406475067, 0.09354225546121597, -0.43950194120407104, -0.9139969944953918, -0.8118645548820496], [0.24029019474983215, 0.43990910053253174, -0.040175095200538635, -0.743639349937439, -0.8924000263214111], [0.3601566553115845, 0.3870428204536438, -0.2031482309103012, -0.5700376033782959, -0.3479066789150238], [0.33126300573349, 0.048171788454055786, -0.21923719346523285, -0.1912478804588318, 0.02429092489182949]], [[0.17529645562171936, 0.03313351050019264, 0.0737413614988327, 0.14093390107154846, 0.11134202778339386], [0.03809565305709839, 0.0826839730143547, 0.06870566308498383, 0.12809304893016815, 0.09573084115982056], [0.031342048197984695, 0.04090765491127968, 0.1238880455493927, 0.2768190801143646, 0.38782599568367004], [-0.18054741621017456, -0.23500114679336548, -0.36516574025154114, 0.2026856392621994, 0.33891046047210693], [-0.2038489282131195, -0.313946008682251, -0.39296478033065796, 0.23318198323249817, 0.25579550862312317]]], [[[0.2585425078868866, 0.335408091545105, 0.363925963640213, 0.22987525165081024, -0.031556833535432816], [0.21364298462867737, 0.05922837555408478, 0.09754398465156555, 0.46724027395248413, 0.046917352825403214], [0.24188688397407532, 0.14299015700817108, 0.33582547307014465, 0.11476282775402069, -0.2872975468635559], [0.26241856813430786, 0.3135528862476349, 0.19640812277793884, -0.13452960550785065, -0.057779159396886826], [-0.177246555685997, -0.1847318857908249, -0.3004262447357178, -0.08339216560125351, 0.01572697050869465]], [[-0.1953503042459488, -0.16647478938102722, -0.3251778483390808, -0.28673410415649414, -0.1463821828365326], [-0.1401088386774063, -0.3295883238315582, -0.4655376672744751, -0.36155444383621216, -0.1461869329214096], [-0.15573203563690186, -0.2508370280265808, -0.39284488558769226, -0.23186549544334412, 0.01880207657814026], [-0.1202448159456253, -0.22630590200424194, -0.14660905301570892, 0.03703227639198303, 0.1556798368692398], [0.15407158434391022, 0.22758552432060242, 0.2749248743057251, 0.0854581743478775, -0.06719175726175308]], [[0.24360328912734985, 0.5483897924423218, 0.0516529344022274, 0.23197871446609497, 0.5821741223335266], [0.5633072853088379, 0.512677013874054, -0.19971559941768646, 0.4754825532436371, 0.6513973474502563], [0.6022894978523254, 0.44753971695899963, 0.3022457957267761, 0.509147584438324, 0.5291698575019836], [0.25970691442489624, 0.48147594928741455, 0.5888862609863281, 0.17609786987304688, 0.1688879281282425], [-0.1458040177822113, 0.12711316347122192, -0.01820482686161995, -0.18125320971012115, -0.20021893084049225]], [[-0.059951361268758774, -0.00509924441576004, -0.049703363329172134, -0.19513732194900513, -0.09299157559871674], [0.019530894234776497, -0.17922519147396088, -0.4133736491203308, 0.25014233589172363, 0.34953662753105164], [0.08996115624904633, -0.23734404146671295, -0.08866055309772491, 0.4460116922855377, 0.10179907083511353], [0.4142686426639557, 0.13692276179790497, 0.5136581063270569, 0.3262709379196167, 0.036787789314985275], [0.974282443523407, 0.7464029788970947, 0.623103141784668, 0.23974403738975525, 0.08479513227939606]], [[0.2337658852338791, -0.08680051565170288, 0.03296599164605141, 0.33294934034347534, -0.16346558928489685], [0.23309747874736786, 0.020273156464099884, 0.4510199725627899, 0.20503832399845123, -0.5179668664932251], [0.19493991136550903, 0.310392826795578, 0.48443275690078735, -0.07987087965011597, -0.18933093547821045], [-0.06622479110956192, -0.0334293395280838, -0.2422264963388443, -0.21143141388893127, 0.02991613931953907], [-0.8951504826545715, -0.730446994304657, -0.6648412346839905, -0.1712375283241272, 0.1615513265132904]], [[-0.056189652532339096, -0.39409956336021423, -0.34538033604621887, -0.34782424569129944, -0.3271409571170807], [-0.3503477871417999, -0.06911740452051163, -0.2571149170398712, -0.4121805727481842, -0.27343592047691345], [-0.24624323844909668, -0.09265580028295517, -0.4532078206539154, -0.43777361512184143, -0.1153741255402565], [-0.4823223948478699, -0.5204053521156311, -0.3484364151954651, -0.07362955063581467, 0.21371948719024658], [-0.10387404263019562, -0.2381676882505417, -0.12471757084131241, 0.16106542944908142, 0.0986812636256218]]], [[[-0.15230736136436462, -0.22669021785259247, -0.322130024433136, -0.45271560549736023, -0.28834840655326843], [-0.18352065980434418, -0.18007777631282806, -0.18185055255889893, -0.47310855984687805, -0.49024543166160583], [0.2174035906791687, 0.14676018059253693, 0.09307264536619186, -0.2782902717590332, -0.7727343440055847], [0.29697462916374207, 0.3279305696487427, 0.20867487788200378, -0.44676557183265686, -0.8302995562553406], [0.1868733912706375, 0.2991200387477875, -0.18878133594989777, -0.7721722722053528, -0.1295410692691803]], [[0.23016119003295898, 0.2169921100139618, 0.0309038944542408, 0.05533963814377785, 0.17587773501873016], [0.029282694682478905, -0.09082271158695221, -0.1476941704750061, 0.1682422012090683, 0.16068150103092194], [-0.21657653152942657, -0.42192181944847107, -0.3221181631088257, 0.068272165954113, 0.1927495300769806], [-0.19054654240608215, -0.42351233959198, -0.0603935681283474, 0.1481015831232071, 0.11227811127901077], [-0.18810875713825226, -0.2199016958475113, -0.02534153126180172, 0.24860499799251556, 0.008002393878996372]], [[-0.057787198573350906, 0.1045672744512558, 0.04100508615374565, 0.0037926631048321724, -0.13668055832386017], [-0.05410657823085785, -0.03142014890909195, 0.16587510704994202, 0.39789196848869324, 0.17783378064632416], [-0.01330532506108284, -0.1694294959306717, 0.3781096637248993, 0.6080378890037537, -0.034689776599407196], [-0.14389674365520477, 0.05660732090473175, 0.3975783884525299, 0.6084340810775757, -0.6796882152557373], [-0.1813378483057022, 0.36414358019828796, 0.45893383026123047, 0.13265500962734222, -0.5002514719963074]], [[0.08545929193496704, 0.0820087417960167, -0.0031707421876490116, 0.010428761132061481, 0.04021942988038063], [-0.16891977190971375, -0.1515623927116394, -0.4281393885612488, -0.19040721654891968, -0.3409578800201416], [-0.21577782928943634, -0.5579887628555298, -0.0568796768784523, 0.2508203685283661, -0.6364371180534363], [-0.1461108922958374, -0.06429409980773926, 0.3703879714012146, 0.2696675956249237, -0.8346872925758362], [0.19484591484069824, 0.3494127094745636, 0.3321349024772644, -0.15050756931304932, -0.6458790898323059]], [[-0.19249266386032104, -0.24910558760166168, -0.43025562167167664, -0.6191849708557129, -0.5820414423942566], [0.19449035823345184, 0.26338881254196167, 0.3132539391517639, -0.44862815737724304, -0.6441638469696045], [0.29127001762390137, 0.4030081629753113, 0.2722645401954651, -0.5798710584640503, -0.34910374879837036], [0.2911282479763031, 0.3395230174064636, -0.24471215903759003, -0.7855072021484375, 0.24689462780952454], [0.12863610684871674, -0.15824683010578156, -0.6757530570030212, -0.3433155119419098, 0.2437036633491516]], [[0.05728024244308472, 0.2243768572807312, 0.21069559454917908, 0.06632727384567261, 0.22756671905517578], [0.3044704496860504, 0.19380420446395874, 0.10475720465183258, 0.05658833310008049, 0.29134076833724976], [-0.09934532642364502, -0.30942144989967346, -0.2549610733985901, -0.20327569544315338, 0.42247480154037476], [-0.24574261903762817, -0.3205868601799011, -0.6785790920257568, 0.11492764949798584, 0.28045254945755005], [-0.2727580964565277, -0.3931580185890198, -0.22530753910541534, 0.3580020070075989, 0.2396729439496994]]], [[[-0.05970652401447296, 0.0060440171509981155, -0.07289296388626099, -0.11771593242883682, -0.30271729826927185], [0.38840070366859436, 0.19867189228534698, -0.01754065230488777, -0.08228849619626999, -0.18726105988025665], [0.5160623788833618, 0.534092903137207, 0.4918108880519867, 0.4829350709915161, 0.49923160672187805], [0.08500675112009048, 0.006700580008327961, 0.0965423583984375, 0.1738032102584839, 0.15232089161872864], [-0.2995525896549225, -0.19432123005390167, 0.06197192892432213, 0.12306081503629684, -0.016702547669410706]], [[-0.16268785297870636, -0.06521496176719666, -0.01147555187344551, 0.19509145617485046, 0.2665519118309021], [-0.34200653433799744, -0.33933067321777344, -0.3495123088359833, -0.17497745156288147, -0.049883756786584854], [-0.2805264890193939, -0.2927519381046295, -0.42164692282676697, -0.3142354190349579, -0.1807902753353119], [-0.05757215619087219, -0.2050904631614685, -0.31750035285949707, -0.145663782954216, -0.004802928306162357], [0.11466161161661148, -0.024264588952064514, -0.10649920254945755, -0.10766326636075974, -0.042598091065883636]], [[-0.13357622921466827, 0.011082751676440239, -0.1456824392080307, -0.24542294442653656, -0.17987653613090515], [-0.01895200088620186, -0.017582640051841736, -0.0717720091342926, -0.09880713373422623, -0.04945874586701393], [0.17620685696601868, -0.18661902844905853, -0.16441337764263153, -0.01814287342131138, 0.14754579961299896], [0.014676331542432308, -0.13749979436397552, -0.28291118144989014, 0.06599700450897217, 0.09824569523334503], [0.29220837354660034, 0.021682579070329666, 0.08023876696825027, 0.2098274528980255, -0.16533315181732178]], [[-0.338501513004303, -0.03657440096139908, 0.08496474474668503, 0.23938697576522827, 0.11033836752176285], [-0.4139271080493927, -0.57359379529953, -0.7670353651046753, -0.5932271480560303, -0.4315267503261566], [0.2949486970901489, 0.2189943641424179, 0.1636912077665329, 0.1618460714817047, 0.29154953360557556], [0.21446968615055084, 0.16462625563144684, 0.1553133875131607, 0.2763332724571228, 0.270974725484848], [0.018014999106526375, -0.17154572904109955, -0.035947736352682114, 0.13004913926124573, 0.01905217207968235]], [[0.24842868745326996, 0.003276763018220663, -0.018065666779875755, -0.011438961140811443, -0.08305120468139648], [0.4599708616733551, 0.4816262722015381, 0.5696532726287842, 0.7351939082145691, 0.707839846611023], [-0.15152545273303986, -0.1663370132446289, 0.2003861367702484, 0.4113936722278595, 0.22007927298545837], [-0.3907005488872528, -0.25384244322776794, -0.24884682893753052, -0.2519129812717438, -0.3541048765182495], [-0.2284832000732422, -0.26188766956329346, -0.22757990658283234, -0.2573987543582916, -0.21215711534023285]], [[0.17850720882415771, 0.2194971740245819, 0.2475130259990692, 0.260577917098999, 0.3506866693496704], [-0.08585406094789505, -0.08709875494241714, 0.04051312431693077, 0.18885725736618042, 0.3587377369403839], [-0.6647413969039917, -0.6204073429107666, -0.5397416949272156, -0.3418082594871521, -0.3107682466506958], [-0.3029018044471741, -0.2194896936416626, -0.4003237187862396, -0.39279070496559143, -0.10434448719024658], [0.062319472432136536, 0.02608368545770645, -0.14029982686042786, -0.15778867900371552, -0.09086799621582031]]], [[[-0.1868497133255005, -0.1216944083571434, 0.11379467695951462, -0.040632039308547974, 0.07409392297267914], [-0.04545574635267258, -0.2643428444862366, -0.4297828674316406, -0.2304990142583847, 0.13603846728801727], [-0.12618692219257355, -1.0078458786010742, -0.6125425696372986, 0.24487066268920898, 0.4258129596710205], [-0.2814805209636688, -0.8289758563041687, -0.16907048225402832, 0.17967428267002106, 0.3599609136581421], [-0.25779086351394653, -0.29788193106651306, -0.05776398628950119, 0.16810819506645203, 0.3663880228996277]], [[0.04545728862285614, 0.1132689118385315, 0.2425212413072586, 0.11347620189189911, -0.07722792774438858], [-0.02332977205514908, 0.2165442556142807, 0.16110776364803314, -0.033873721957206726, -0.23820139467716217], [0.05222975090146065, 0.34528848528862, 0.148918017745018, -0.20348624885082245, -0.19010919332504272], [0.15587081015110016, 0.27761226892471313, -0.007224332541227341, -0.28226351737976074, -0.18923208117485046], [0.09938681870698929, -0.003719933796674013, -0.19204384088516235, -0.23437634110450745, -0.3690100610256195]], [[0.12248410284519196, 0.3461913764476776, 0.12565426528453827, -0.10929176211357117, -0.20746105909347534], [0.41896486282348633, 0.35493138432502747, -0.20958539843559265, -0.4827834367752075, 0.29665854573249817], [0.5294356942176819, 0.28455546498298645, -0.31217893958091736, -0.03927735984325409, 0.08802299946546555], [0.40401217341423035, 0.079688660800457, 0.06928196549415588, -0.14744985103607178, -0.14520056545734406], [0.4651152491569519, 0.10875684767961502, -0.19728679955005646, -0.36201438307762146, -0.2993992269039154]], [[-0.03686322271823883, 0.3363874554634094, 0.09793668985366821, -0.042740993201732635, -0.2553771734237671], [0.2545645236968994, 0.3227939009666443, -0.13871078193187714, -0.6313871145248413, -0.27945685386657715], [0.4956619143486023, 0.0913252979516983, -0.8931924104690552, -0.4358403980731964, -0.1250976324081421], [0.2044726312160492, -0.5027271509170532, -0.5708773136138916, 0.002477595116943121, -0.05339338257908821], [-0.1594618558883667, -0.4294035732746124, -0.014584232121706009, 0.014039544388651848, -0.10461275279521942]], [[0.06203565001487732, -0.25114092230796814, -0.3867306411266327, 0.09497494250535965, 0.2099352777004242], [-0.37962907552719116, -1.0508722066879272, -0.4714989960193634, 0.5500136017799377, 0.4382804036140442], [-0.7356741428375244, -0.6364412307739258, 0.17690865695476532, 0.3378913104534149, 0.15446417033672333], [-0.2748824656009674, -0.16138885915279388, 0.21452419459819794, -0.01814105734229088, 0.12146880477666855], [-0.015602539293467999, -0.1708700954914093, -0.21483707427978516, -0.020647825673222542, 0.16904909908771515]], [[-0.08821370452642441, -0.09834124147891998, 0.1214553564786911, 0.16606208682060242, -0.04293062910437584], [-0.31103160977363586, 0.07184822112321854, 0.34491419792175293, 0.2472969889640808, 0.02307901345193386], [-0.25741273164749146, 0.23258264362812042, 0.34809648990631104, -0.0011445002164691687, -0.3018737733364105], [-0.040247268974781036, 0.3808608651161194, 0.15292523801326752, -0.09977827966213226, -0.21467946469783783], [-0.1254388689994812, 0.12839366495609283, -0.06376638263463974, -0.20043276250362396, -0.2677449584007263]]], [[[0.028497034683823586, 0.13228215277194977, 0.07999186962842941, 0.14372943341732025, 0.17815634608268738], [0.12052932381629944, 0.12303554266691208, 0.22161827981472015, 0.08506053686141968, 0.012719420716166496], [-0.202638179063797, -0.16654345393180847, -0.19363650679588318, -0.2859492599964142, -0.2253744751214981], [-0.2964489758014679, -0.5179396271705627, -0.3729030191898346, -0.3022887706756592, -0.1681498885154724], [0.28446367383003235, -0.006579411216080189, -0.27242740988731384, -0.21604572236537933, -0.06902479380369186]], [[-0.0544467568397522, -0.21809248626232147, -0.07603691518306732, -0.11266845464706421, -0.06572838127613068], [0.02735404670238495, 0.02175820805132389, -0.0018849587067961693, -0.054969094693660736, 0.01350486557930708], [0.1696540117263794, 0.24582569301128387, 0.23195146024227142, 0.14319583773612976, 0.08168486505746841], [0.08425131440162659, 0.22728006541728973, 0.23771677911281586, 0.19339808821678162, 0.07008138298988342], [-0.24659354984760284, -0.0022452634293586016, 0.06438928842544556, 0.08624370396137238, -0.011141467839479446]], [[-0.19385017454624176, -0.2313777208328247, -0.06684072315692902, 0.06842424720525742, 0.048512574285268784], [-0.4989851415157318, -0.2402157336473465, -0.1681402027606964, -0.13394206762313843, -0.1767289638519287], [-0.31050971150398254, -0.5230353474617004, -0.6621608734130859, -0.49510306119918823, -0.35437241196632385], [-0.19570161402225494, -0.3578279912471771, -0.5739521384239197, -0.5283531546592712, -0.12975862622261047], [-0.0426500178873539, 0.083956778049469, -0.02412313222885132, -0.40660810470581055, -0.15753278136253357]], [[0.02699902467429638, -0.07264701277017593, -0.040530670434236526, 0.057190071791410446, 0.2065022736787796], [0.2933850586414337, 0.34535884857177734, 0.403696745634079, 0.31777530908584595, 0.3232273459434509], [0.17935757339000702, 0.40290865302085876, 0.39878663420677185, 0.18678034842014313, -0.06242435798048973], [-0.26693612337112427, -0.290721595287323, -0.2503068745136261, -0.008188520558178425, 0.10299236327409744], [-0.14965051412582397, -0.3235000669956207, -0.21163474023342133, -0.04662506654858589, 0.05721719563007355]], [[0.16849902272224426, 0.19030407071113586, 0.1775120496749878, 0.04526464268565178, -0.14648589491844177], [-0.2196895182132721, -0.3297141492366791, -0.15061448514461517, -0.2951492369174957, -0.2388978898525238], [-0.24675631523132324, -0.49494919180870056, -0.3423202633857727, 0.12257446348667145, 0.14971348643302917], [0.5048807859420776, 0.2582899034023285, 0.101217120885849, 0.11719359457492828, 0.14879903197288513], [0.3485248386859894, 0.14033494889736176, -0.18986161053180695, -0.16894900798797607, -0.10692935436964035]], [[-0.09479562938213348, -0.022920500487089157, -0.1388067752122879, -0.11058653891086578, -0.22395610809326172], [-0.12855419516563416, -0.19331201910972595, -0.2372671514749527, -0.04702280834317207, 0.014626988209784031], [0.205977663397789, 0.048663344234228134, 0.11838929355144501, 0.15729016065597534, 0.11023437976837158], [0.2985716462135315, 0.34479349851608276, 0.22948317229747772, 0.16424795985221863, 0.10537660866975784], [0.10078743100166321, 0.06068367883563042, 0.12190256267786026, 0.095014788210392, 0.05873868614435196]]], [[[0.25542306900024414, 0.15389855206012726, -0.01795376092195511, 0.07852384448051453, 0.22551356256008148], [0.3046417236328125, 0.3415302336215973, 0.24165797233581543, 0.14443233609199524, 0.2544059455394745], [0.03328076750040054, 0.3652387261390686, 0.3640289008617401, 0.0822070762515068, -0.3266906142234802], [-0.39555975794792175, -0.3791593313217163, -0.3293916881084442, -0.47739875316619873, -0.2761188745498657], [-0.2925214469432831, -0.5025703310966492, -0.5062732100486755, -0.12572570145130157, 0.07499165832996368]], [[-0.26152756810188293, -0.1842886507511139, -0.11742555350065231, -0.12841635942459106, -0.15380226075649261], [-0.24026133120059967, -0.3694537580013275, -0.3472501337528229, -0.12096987664699554, -0.11185421794652939], [-0.09316542744636536, -0.0651882216334343, -0.011319764889776707, 0.1220385879278183, 0.06696075946092606], [0.3179573714733124, 0.2166656255722046, 0.2989208400249481, 0.30770769715309143, 0.10535655915737152], [0.3167169988155365, 0.3636709749698639, 0.27692726254463196, 0.13487473130226135, -0.06629548221826553]], [[-0.22321385145187378, -0.15549267828464508, -0.2900424599647522, -0.11829280108213425, -0.121705561876297], [-0.4639216959476471, -0.3991265296936035, -0.14082497358322144, 0.19654148817062378, 0.07280637323856354], [-0.44603779911994934, -0.4503651559352875, 0.013597325421869755, 0.23412777483463287, -0.18000200390815735], [-0.09387527406215668, -0.2991027235984802, -0.33407914638519287, -0.6401963829994202, -0.45834657549858093], [0.06315737962722778, -0.125504270195961, -0.24770183861255646, -0.6419534683227539, -0.25991085171699524]], [[-0.013841411098837852, -0.0339055210351944, -0.34270182251930237, -0.07393953949213028, 0.08199720084667206], [0.15083271265029907, -0.0980023741722107, -0.13855378329753876, 0.24425557255744934, 0.3599596917629242], [0.280216246843338, 0.4273659586906433, 0.6072545051574707, 0.4871370792388916, 0.33168473839759827], [0.2417723387479782, 0.5140252709388733, 0.47471722960472107, 0.13676533102989197, -0.3132672905921936], [0.22144967317581177, -0.25527331233024597, -0.40701058506965637, -0.4072880446910858, -0.007926259189844131]], [[0.24597994983196259, 0.3530097007751465, 0.35948705673217773, 0.279631644487381, 0.1076541468501091], [0.09184402227401733, 0.3196842670440674, 0.4287380576133728, 0.16092932224273682, -0.37412047386169434], [-0.2909911274909973, -0.20352309942245483, -0.24270349740982056, -0.43351489305496216, -0.026812899857759476], [-0.2789187431335449, -0.545173168182373, -0.3939024806022644, 0.07384892553091049, 0.46376490592956543], [-0.1276044100522995, 0.1046062484383583, 0.14334414899349213, 0.17822392284870148, 0.12408773601055145]], [[-0.2156331092119217, -0.09680427610874176, 0.03985164314508438, -0.13388019800186157, -0.3293232023715973], [-0.3131439685821533, -0.26693764328956604, -0.25998610258102417, -0.3037945330142975, -0.19494643807411194], [-0.26248136162757874, -0.3914881944656372, -0.3781271278858185, -0.053691405802965164, 0.13197572529315948], [0.0673293024301529, 0.19419856369495392, 0.20318013429641724, 0.29906418919563293, 0.25569435954093933], [0.3583078980445862, 0.415780633687973, 0.3322458267211914, 0.24617476761341095, 0.08943957835435867]]], [[[-0.23448984324932098, -0.09976306557655334, 0.05416172742843628, 0.005276085343211889, -0.13148579001426697], [-0.1979314237833023, -0.34183186292648315, 0.17346468567848206, 0.19172854721546173, -0.10727734863758087], [-0.5490712523460388, -0.23344290256500244, 0.4311620593070984, 0.40423667430877686, -0.10392443090677261], [-0.42493924498558044, 0.11882267892360687, 0.29979899525642395, 0.1801864206790924, -0.5932175517082214], [-0.1321127861738205, 0.015905756503343582, 0.1675199568271637, 0.04829689487814903, -0.6095286011695862]], [[0.1698291301727295, 0.1482246220111847, -0.13035058975219727, -0.1714896559715271, -0.19241167604923248], [0.21069137752056122, 0.07126206904649734, -0.28582197427749634, -0.2901906371116638, -0.003256269032135606], [0.31176212430000305, 0.016636798158288002, -0.3894127309322357, -0.1546960473060608, 0.1925024837255478], [0.1803145706653595, -0.12479344755411148, -0.3467266857624054, -0.10895740240812302, 0.285889595746994], [-0.01035773940384388, -0.03113436885178089, -0.2358422428369522, 0.11294905841350555, 0.19724585115909576]], [[0.368561327457428, -0.07707038521766663, -0.024358754977583885, 0.17408312857151031, 0.2156887799501419], [0.48166507482528687, -0.3445484936237335, -0.02598978579044342, 0.44437727332115173, 0.5085931420326233], [-0.006955323740839958, -0.4732078015804291, 0.15758812427520752, 0.4999622404575348, 0.5734288096427917], [-0.1392095535993576, -0.3762034475803375, 0.172749325633049, 0.37770697474479675, 0.5813231468200684], [-0.048463787883520126, -0.4200223386287689, -0.0801539272069931, 0.5387637615203857, 0.6173368096351624]], [[0.19015753269195557, -0.12842734158039093, -0.3352189362049103, -0.16157512366771698, -0.191266268491745], [0.22067584097385406, -0.4534232020378113, -0.5644952058792114, -0.16008423268795013, 0.017089273780584335], [-0.22255876660346985, -0.7254623770713806, -0.32215577363967896, 0.25667494535446167, 0.2817693054676056], [-0.2922608256340027, -0.2648148834705353, 0.046533141285181046, 0.3654278516769409, 0.21202781796455383], [-0.2466176301240921, -0.11231007426977158, 0.08991670608520508, 0.32510384917259216, 0.19101780652999878]], [[-0.3930513858795166, -0.36787882447242737, 0.04446938633918762, -0.013979828916490078, -0.3690425157546997], [-0.6831376552581787, 0.2090284377336502, 0.4981721043586731, 0.2356305718421936, -0.18629337847232819], [-0.10330156236886978, 0.3080517053604126, 0.2948557138442993, 0.05539179593324661, -0.5904775857925415], [0.04531851038336754, 0.1857185810804367, -0.03226638585329056, -0.25608986616134644, -0.48462173342704773], [-0.2584739029407501, -0.05984007567167282, -0.11492603272199631, -0.2885992228984833, -0.4751332700252533]], [[-0.10448212921619415, 0.2058590203523636, 0.0012251714942976832, -0.060284920036792755, 0.0253780297935009], [0.1575804501771927, 0.34882646799087524, -0.015356971882283688, -0.32587143778800964, -0.26832154393196106], [0.2674426734447479, 0.28685685992240906, -0.2374069094657898, -0.6961917281150818, -0.09312400966882706], [0.36470285058021545, 0.019266055896878242, -0.5237188935279846, -0.376384973526001, 0.012534829787909985], [0.16323180496692657, -0.1366865485906601, -0.33574697375297546, -0.18074330687522888, 0.23819264769554138]]], [[[0.257896363735199, 0.22216007113456726, 0.25746896862983704, 0.052043937146663666, -0.19555611908435822], [0.07670692354440689, 0.15592871606349945, 0.29086652398109436, 0.28091537952423096, -0.11766219884157181], [0.09910497814416885, 0.23939990997314453, 0.29912737011909485, 0.06551887840032578, -0.10338389128446579], [-0.07776282727718353, 0.14728480577468872, 0.14536215364933014, 0.05677948147058487, 0.06454865634441376], [-0.026773884892463684, 0.24275684356689453, 0.26460832357406616, 0.017183639109134674, 0.255280464887619]], [[-0.21549560129642487, -0.34955674409866333, -0.3781740069389343, -0.15175217390060425, 0.04719530791044235], [-0.06614680588245392, -0.4191596806049347, -0.5847141742706299, -0.22095008194446564, 0.03471798077225685], [-0.030601460486650467, -0.45082661509513855, -0.44775962829589844, -0.10807868093252182, 0.1645565778017044], [-0.2297353595495224, -0.39359381794929504, -0.3356160819530487, -0.07849819213151932, 0.015845900401473045], [-0.1935490369796753, -0.2732987105846405, -0.20090508460998535, -0.08468176424503326, -0.16683940589427948]], [[0.20152556896209717, 0.060624074190855026, 0.3441947102546692, 0.6341460943222046, 0.6131804585456848], [0.4011710286140442, 0.03401762247085571, 0.060439582914114, 0.6741086840629578, 0.5664067268371582], [0.2534306049346924, -0.08469696342945099, 0.36856308579444885, 0.5002473592758179, 0.598320484161377], [0.013675224035978317, -0.06093597039580345, 0.5514430999755859, 0.5093597173690796, 0.3272804915904999], [-0.1800326406955719, 0.1325545459985733, 0.3859752416610718, 0.1685916632413864, -0.10257843136787415]], [[0.022660622373223305, -0.36354005336761475, -0.3497611880302429, -0.19819168746471405, -0.33023813366889954], [0.013839938677847385, -0.3851550221443176, -0.2110641896724701, 0.3579535484313965, -0.06296507269144058], [-0.30887216329574585, -0.38407841324806213, -0.1033904105424881, 0.14482687413692474, -0.2828909754753113], [-0.2762744724750519, -0.4128071069717407, 0.10946590453386307, -0.010599383153021336, -0.3791123628616333], [-0.1576908528804779, 0.05865592136979103, 0.22213700413703918, 0.012165740132331848, 0.028457412496209145]], [[-0.1272914707660675, 0.10957697033882141, 0.44436830282211304, 0.3424931764602661, -0.1304609775543213], [-0.14037148654460907, 0.1173778548836708, 0.2624552547931671, -0.0816774070262909, -0.40078240633010864], [0.1537495255470276, 0.3030092418193817, 0.2536041736602783, -0.2763024568557739, 0.11305002123117447], [0.22202275693416595, 0.24494622647762299, -0.08935065567493439, -0.028530508279800415, 0.2669631242752075], [-0.09856297075748444, -0.08948642015457153, -0.49064016342163086, -0.17457513511180878, -0.08932387083768845]], [[-0.25644034147262573, -0.2678133249282837, -0.1979752629995346, -0.12325127422809601, -0.03407813981175423], [-0.0855950117111206, -0.2715492248535156, -0.3013630509376526, -0.2867465913295746, 0.009151670150458813], [-0.03288373351097107, -0.3456232249736786, -0.40974366664886475, -0.20495390892028809, 0.24637606739997864], [0.07384372502565384, -0.21309471130371094, -0.48829030990600586, -0.0487188994884491, 0.09950915724039078], [-0.03644299507141113, -0.44406574964523315, -0.4018876552581787, -0.04114077240228653, -0.17909322679042816]]], [[[-0.2299862951040268, -0.36799296736717224, -0.10450435429811478, 0.1654694527387619, 0.0069513143971562386], [-0.38975122570991516, -0.31811684370040894, 0.18607598543167114, 0.2166537642478943, -0.18059003353118896], [-0.22027847170829773, -0.11346851289272308, 0.21421454846858978, 0.16443583369255066, -0.492510050535202], [-0.2910240888595581, -0.24558237195014954, 0.2239939123392105, -0.07735778391361237, -0.5188187956809998], [-0.5006091594696045, -0.6070665121078491, -0.5730456709861755, -0.4563363790512085, -0.5023489594459534]], [[0.41127142310142517, 0.09920533746480942, -0.21473456919193268, -0.34639427065849304, -0.3172663152217865], [0.2533639669418335, 0.024063874036073685, -0.35639122128486633, -0.33835119009017944, 0.05572850629687309], [0.1075095608830452, -0.17404969036579132, -0.46532896161079407, -0.030132070183753967, 0.16703656315803528], [0.2227681279182434, 0.004085239488631487, -0.04710764437913895, 0.23730486631393433, 0.4474584758281708], [0.3000870645046234, 0.14448174834251404, 0.12376669049263, 0.2658441960811615, 0.23457899689674377]], [[0.40317535400390625, 0.3687801659107208, -0.3071196377277374, 0.3951054513454437, 0.3677867650985718], [0.06171462684869766, -0.028608597815036774, -0.4520765244960785, 0.6896197199821472, 0.669402539730072], [-0.11317160725593567, -0.6687965989112854, -0.358358234167099, 0.7136734127998352, 0.5529999136924744], [-0.16733914613723755, -0.7396860718727112, -0.2768395245075226, 0.40312767028808594, 0.181234672665596], [-0.15901587903499603, -0.6384129524230957, -0.4609875977039337, 0.16758258640766144, 0.06754136830568314]], [[0.020246896892786026, -0.07163505256175995, -0.6876841187477112, -0.4066464304924011, 0.08302902430295944], [-0.2233545482158661, -0.6534304618835449, -0.6778345108032227, 0.4083805978298187, 0.24508653581142426], [-0.13664473593235016, -0.32160061597824097, 0.10432843863964081, 0.44356462359428406, 0.18542702496051788], [0.23695255815982819, 0.01277165673673153, 0.3633859157562256, 0.5642223358154297, -0.10664284229278564], [-0.12025484442710876, -0.15339884161949158, -0.044433604925870895, -0.16206397116184235, -0.7541236281394958]], [[-0.29743126034736633, 0.019014613702893257, 0.4794268310070038, 0.5229663848876953, -0.5705306529998779], [-0.11080162227153778, 0.3213816285133362, 0.6166603565216064, 0.30485883355140686, -0.6641578674316406], [-0.08125971257686615, 0.041041187942028046, 0.3279217779636383, -0.24331346154212952, -0.6643112897872925], [-0.6594004034996033, -0.5994015336036682, -0.4931979775428772, -0.5190814137458801, -0.4085385203361511], [-0.1822756975889206, 5.63208777748514e-05, 0.1350466012954712, -0.03695352002978325, -0.0650908574461937]], [[0.12526331841945648, 0.39131516218185425, -0.09921333193778992, -0.40023165941238403, -0.3050716519355774], [0.2659640312194824, 0.12038420885801315, -0.21421098709106445, -0.4680865705013275, -0.3164662718772888], [0.1247863695025444, 0.012894601561129093, -0.3903900682926178, -0.4032716453075409, 0.31775057315826416], [0.12953926622867584, 0.005828697234392166, -0.28684693574905396, -0.16723419725894928, 0.27117109298706055], [0.3322802186012268, 0.3495800793170929, 0.15872541069984436, 0.3299564719200134, 0.4845317304134369]]], [[[-0.01657285913825035, 0.0058417669497430325, -0.04976562038064003, -0.27444782853126526, -0.46299445629119873], [0.35376137495040894, 0.3513405919075012, 0.45825132727622986, 0.3698602318763733, -0.002377219730988145], [0.42560768127441406, 0.4162620007991791, 0.5004009008407593, 0.42520642280578613, 0.3378998041152954], [0.22282977402210236, 0.07377125322818756, -0.12012024223804474, 0.0008111189818009734, 0.17272789776325226], [-0.08571038395166397, -0.2669450640678406, -0.1396249532699585, 0.07302264869213104, 0.27387532591819763]], [[-0.22406558692455292, -0.21522584557533264, -0.11754363030195236, -0.01080930233001709, -0.013822127133607864], [-0.32274141907691956, -0.23415793478488922, -0.29564711451530457, -0.2430821806192398, -0.16985642910003662], [-0.16919705271720886, -0.22690728306770325, -0.1805056631565094, -0.1756153255701065, -0.3181259334087372], [-0.1926792711019516, -0.1879463791847229, -0.14810438454151154, -0.12909182906150818, -0.3664586842060089], [-0.16420170664787292, -0.13586172461509705, -0.07862697541713715, -0.08498849719762802, -0.26014208793640137]], [[-0.005190551280975342, -0.07573770731687546, -0.09154486656188965, 0.0758812427520752, -0.019434286281466484], [0.13346990942955017, 0.04569075256586075, 0.022325687110424042, 0.21378017961978912, -0.08913319557905197], [0.27320605516433716, 0.40875932574272156, 0.10314547270536423, -0.07287539541721344, -0.38328319787979126], [0.39649030566215515, 0.46643689274787903, 0.10085566341876984, -0.31057101488113403, -0.5334648489952087], [0.24901530146598816, 0.4616536498069763, 0.19464971125125885, -0.08634109050035477, -0.400546669960022]], [[-0.3994329273700714, -0.29269978404045105, -0.19343355298042297, -0.2396642565727234, -0.32181885838508606], [-0.2217538207769394, -0.31426841020584106, -0.10537410527467728, -0.2073832005262375, -0.575558602809906], [-0.011467481963336468, 0.24233847856521606, 0.27806150913238525, 0.27574053406715393, -0.17277173697948456], [0.053821541368961334, 0.08688918501138687, 0.02915102243423462, -0.031022997573018074, -0.22190113365650177], [-0.14290784299373627, -0.17144475877285004, -0.2560616433620453, -0.23556871712207794, -0.08347680419683456]], [[0.2587038278579712, 0.32703518867492676, 0.34281471371650696, 0.38951531052589417, 0.3459993302822113], [0.3621206283569336, 0.41294243931770325, 0.5852319002151489, 0.7525177001953125, 0.6373439431190491], [0.23771369457244873, 0.07786345481872559, -0.09582646936178207, 0.14372901618480682, 0.4636566936969757], [-0.13047268986701965, -0.06571972370147705, 0.011819155886769295, 0.1778959035873413, 0.1741335690021515], [-0.17728175222873688, -0.24689292907714844, -0.23141758143901825, -0.12270741164684296, 0.024913020431995392]], [[0.12161336094141006, 0.2175961583852768, 0.32833895087242126, 0.4346121549606323, 0.4308594763278961], [-0.20801907777786255, -0.17269735038280487, -0.11720262467861176, 0.003860186319798231, 0.10841790586709976], [-0.4583611488342285, -0.44155946373939514, -0.5554705262184143, -0.3459640145301819, -0.2512567937374115], [-0.32123979926109314, -0.11008363962173462, -0.10448524355888367, -0.09845920652151108, -0.16404137015342712], [-0.2170424908399582, -0.20666755735874176, -0.04729548096656799, -0.05930158868432045, -0.37159043550491333]]], [[[-0.14647404849529266, 0.057278312742710114, 0.11157111823558807, -0.17830288410186768, -0.49357399344444275], [0.004171757027506828, 0.13690105080604553, 0.369943231344223, 0.12076395004987717, -0.472690612077713], [0.054255448281764984, 0.2013777643442154, 0.29987189173698425, 0.06487739086151123, -0.4824264347553253], [-0.08072409778833389, 0.1877104490995407, 0.2339748591184616, 0.01083904318511486, -0.20336449146270752], [0.007751723751425743, 0.2870406210422516, -0.01805136539041996, -0.4031440317630768, -0.08059525489807129]], [[0.13830344378948212, -0.15211664140224457, -0.25710341334342957, -0.17295074462890625, 0.12320180237293243], [0.040899816900491714, -0.23566597700119019, -0.47272077202796936, -0.05747254937887192, 0.17419175803661346], [0.19864465296268463, -0.225016251206398, -0.44316884875297546, -0.04701803997159004, 0.26301276683807373], [-0.08729033172130585, -0.39985477924346924, -0.20594996213912964, 0.07112503796815872, 0.17168070375919342], [-0.18180496990680695, -0.42354121804237366, -0.14591340720653534, 0.07149884849786758, -0.04124096408486366]], [[0.02511144056916237, -0.17963038384914398, 0.10998538136482239, 0.5674586892127991, 0.38019859790802], [0.05507616698741913, -0.22711721062660217, 0.1645556390285492, 0.7286772131919861, 0.49129819869995117], [-0.0023610966745764017, -0.3882398009300232, 0.3018752932548523, 0.5945467948913574, 0.4661412537097931], [-0.22057411074638367, 0.03210335597395897, 0.482399582862854, 0.4223500192165375, 0.19220168888568878], [-0.22958995401859283, 0.18188828229904175, 0.5630174279212952, 0.2172059267759323, -0.20607906579971313]], [[-0.055343855172395706, -0.1824212223291397, -0.29762396216392517, -0.024082845076918602, -0.15696704387664795], [0.0387711226940155, -0.26802298426628113, -0.25621479749679565, 0.2406919300556183, -0.17892318964004517], [-0.21245644986629486, -0.41575950384140015, 0.05401146039366722, 0.2454402893781662, -0.3012830317020416], [-0.4131719172000885, -0.22423268854618073, 0.16637971997261047, 0.05767962336540222, -0.547228991985321], [-0.22050298750400543, 0.042431291192770004, 0.1985514760017395, -0.16571635007858276, -0.5768574476242065]], [[-0.07655153423547745, 0.006004471331834793, 0.20915596187114716, -0.014235671609640121, -0.5405079126358032], [0.01024955976754427, 0.1937025934457779, 0.37627682089805603, -0.017886487767100334, -0.4940463900566101], [0.06260606646537781, 0.38109904527664185, 0.14185649156570435, -0.4692889451980591, -0.09959899634122849], [0.34333646297454834, 0.3386823236942291, -0.04387196525931358, -0.3094947934150696, 0.1610322743654251], [0.27129682898521423, 0.1397700011730194, -0.37753891944885254, -0.08137290179729462, 0.18757152557373047]], [[0.036114584654569626, -0.0836222842335701, -0.1646791398525238, -0.21049942076206207, 0.1091923862695694], [0.07860669493675232, -0.10136681795120239, -0.3590112626552582, -0.2581755518913269, 0.08022332936525345], [0.1199503168463707, -0.06885460019111633, -0.5303441882133484, -0.08405912667512894, 0.3110259473323822], [0.2634839117527008, -0.22522062063217163, -0.451032429933548, 0.011984674260020256, 0.1604837328195572], [0.007813862524926662, -0.30832812190055847, -0.1330941617488861, 0.1194281280040741, 0.04325087368488312]]], [[[-0.10866409540176392, -0.11140087991952896, 0.03926016390323639, -0.02358117140829563, -0.003016473725438118], [-0.2634226679801941, -0.17025481164455414, -0.16840222477912903, -0.1656542718410492, -0.2571128308773041], [-0.25295525789260864, -0.44950583577156067, -0.4412832260131836, -0.3382524847984314, -0.1885424256324768], [0.08026275038719177, 0.34849005937576294, 0.3646585941314697, 0.5538091063499451, 0.3616239130496979], [0.30313462018966675, 0.4440658986568451, 0.4024032950401306, 0.15222705900669098, -0.04317102208733559]], [[-0.12196261435747147, 0.11464358866214752, 0.026863180100917816, 0.183517187833786, 0.18710727989673615], [0.1350749433040619, 0.11747834086418152, 0.20545339584350586, 0.3013332784175873, 0.3289911150932312], [-0.018385853618383408, -0.011081831529736519, -0.0573742538690567, -0.12678761780261993, -0.15896999835968018], [-0.18663233518600464, -0.21649454534053802, -0.34518399834632874, -0.36852023005485535, -0.344242662191391], [-0.17286455631256104, -0.0676538273692131, -0.11125435680150986, -0.1083953008055687, -0.1426669806241989]], [[-0.09760748594999313, 0.05303178355097771, -0.1463240385055542, -0.18009452521800995, 0.10219523310661316], [-0.022429930046200752, -0.15758155286312103, -0.3127582371234894, -0.2994020879268646, -0.40843841433525085], [-0.26060667634010315, -0.560319185256958, -0.4881250262260437, -0.3199332356452942, -0.34472599625587463], [-0.5124703049659729, -0.3383071720600128, -0.2199009656906128, -0.012463228777050972, -0.0935387909412384], [-0.20958520472049713, -0.22601045668125153, 0.21578848361968994, 0.15206998586654663, -0.10290936380624771]], [[0.10033881664276123, 0.2753755748271942, 0.2920118272304535, 0.5369217991828918, 0.5442764163017273], [0.37433066964149475, 0.33213376998901367, 0.3086628019809723, 0.3384105861186981, 0.3497011065483093], [-0.1497071236371994, -0.3265368938446045, -0.4921007454395294, -0.595834493637085, -0.6625871062278748], [-0.2635083496570587, -0.36439770460128784, -0.1631229668855667, 0.1510430872440338, 0.05769762024283409], [0.14174886047840118, 0.23731639981269836, 0.4238992929458618, 0.4477839469909668, 0.2055779993534088]], [[-0.16311809420585632, -0.11354989558458328, -0.23994411528110504, -0.25821608304977417, -0.47409749031066895], [-0.3942619562149048, -0.4846722483634949, -0.5137420296669006, -0.5926952958106995, -0.4113433361053467], [-0.08553142100572586, 0.3913286626338959, 0.6151288151741028, 0.7660595178604126, 0.7684948444366455], [0.60124671459198, 0.5003511905670166, 0.5655426383018494, 0.3612401485443115, 0.24850964546203613], [0.025382403284311295, -0.12787917256355286, -0.22725801169872284, -0.3838355839252472, -0.046612367033958435]], [[-0.23520813882350922, -0.21286343038082123, -0.23843546211719513, -0.21072278916835785, -0.42390748858451843], [-0.012408186681568623, -0.06880863755941391, 0.023060720413923264, 0.12570513784885406, 0.372314989566803], [0.27480006217956543, 0.3572361469268799, 0.5363102555274963, 0.4399830996990204, 0.4609566926956177], [-0.022426355630159378, -0.07908199727535248, -0.22189997136592865, -0.323734849691391, -0.4738147258758545], [-0.28756046295166016, -0.39730963110923767, -0.4205991327762604, -0.3203233480453491, -0.22286811470985413]]], [[[-0.011368494480848312, -0.15783528983592987, -0.11103160679340363, -0.06867679953575134, 0.10197636485099792], [-0.1203201413154602, -0.3774834871292114, -0.3799440860748291, -0.2486077845096588, 0.07105975598096848], [-0.10367455333471298, -0.5259555578231812, -0.3714793622493744, -0.13312405347824097, 0.15185409784317017], [-0.3700857162475586, -0.5237160325050354, -0.1378304660320282, 0.056546807289123535, 0.19622504711151123], [-0.3531196713447571, 0.0073020425625145435, 0.13067348301410675, 0.14849987626075745, 0.28327062726020813]], [[0.012634474784135818, 0.3051978051662445, 0.1396908462047577, 0.0669553354382515, -0.08171802014112473], [0.06921429187059402, 0.2798764705657959, 0.15860581398010254, -0.01737656258046627, -0.1725465953350067], [0.1826150268316269, 0.34783607721328735, 0.10863808542490005, -0.09850252419710159, -0.09682150930166245], [0.241813525557518, 0.187317356467247, -0.03449753299355507, -0.13139037787914276, -0.22442011535167694], [0.08231140673160553, -0.04245248809456825, -0.2416653037071228, -0.2650734782218933, -0.2896495759487152]], [[0.3365439176559448, 0.36059534549713135, 0.004253853112459183, -0.32769134640693665, -0.03960549458861351], [0.47674477100372314, 0.29046493768692017, 0.0291853379458189, -0.4174390733242035, -0.02315906621515751], [0.5224933624267578, 0.09005056321620941, -0.09481805562973022, -0.21064946055412292, -0.18920916318893433], [0.14658381044864655, -0.32773420214653015, -0.0038486733101308346, -0.01714414916932583, -0.10162582248449326], [0.038726650178432465, -0.20218294858932495, -0.04058804735541344, -0.14263257384300232, 0.0003454379038885236]], [[0.18245042860507965, 0.29166379570961, 0.06785399466753006, -0.0742688924074173, 0.0044119833037257195], [0.3128930330276489, 0.17729288339614868, -0.1826724410057068, -0.31498247385025024, 0.1943345069885254], [0.38265886902809143, -0.22195963561534882, -0.5991741418838501, -0.3295736312866211, -0.06972738355398178], [0.014498978853225708, -0.6208716034889221, -0.6076768636703491, -0.27588289976119995, -0.22222113609313965], [-0.40586039423942566, -0.5147715210914612, -0.13240012526512146, -0.08091170340776443, 0.05854494124650955]], [[-0.0698189064860344, -0.30115389823913574, -0.23565638065338135, 0.0828210785984993, 0.1865481585264206], [-0.31121256947517395, -0.34615227580070496, -0.10496185719966888, 0.1798204779624939, -0.08833955228328705], [-0.5920925736427307, -0.24795085191726685, 0.21320761740207672, 0.17284908890724182, 0.10482054203748703], [-0.2798871397972107, 0.24400244653224945, 0.38115912675857544, 0.14294470846652985, 0.26043394207954407], [0.07159052044153214, 0.23109205067157745, -0.011755643412470818, 0.08590208739042282, 0.0863332450389862]], [[-0.1662408709526062, 0.05527336522936821, 0.14343267679214478, 0.15178178250789642, -0.13676929473876953], [-0.07931680977344513, 0.21573016047477722, 0.4150939881801605, 0.20248405635356903, -0.236581951379776], [0.08270718157291412, 0.3940615653991699, 0.39818814396858215, 0.19254200160503387, -0.08491389453411102], [0.2577768862247467, 0.36241209506988525, 0.13341659307479858, -0.04326402395963669, -0.014796432107686996], [0.21860884130001068, 0.14448320865631104, -0.14127707481384277, -0.12593871355056763, -0.2182619571685791]]]], "c3_conv.bias": [-0.12358242273330688, -0.0023912996985018253, -0.013476047664880753, -0.05598440766334534, -0.11416097730398178, -0.00484706973657012, -0.055618979036808014, 0.042471643537282944, -0.12798753380775452, 0.023044029250741005, 0.0040525030344724655, -0.04036244377493858, -0.06974320858716965, 0.08217684179544449, -0.05669453740119934, -0.07042774558067322], "c5_conv.weight": [[[[-0.04239879921078682, -0.08869403600692749, -0.03499413654208183, 0.12287232279777527, 0.09547394514083862], [-0.1792948693037033, -0.0843166634440422, -0.03860427439212799, 0.11986570805311203, 0.09003710001707077], [-0.39468297362327576, -0.18292592465877533, 0.15957649052143097, -0.07966610789299011, 0.13668297231197357], [-0.0035236217081546783, -0.3911285996437073, -0.2370288074016571, -0.09791170060634613, -0.13452644646167755], [0.14789016544818878, -0.06471962481737137, -0.03441149741411209, -0.07507829368114471, 0.07051544636487961]], [[-0.08962422609329224, -0.004353979602456093, -0.13023768365383148, 0.21771951019763947, 0.1712796837091446], [-0.16717906296253204, 0.12989826500415802, 0.09158410131931305, 0.005563942715525627, 0.12150326371192932], [-0.2951824367046356, 0.0925888642668724, 0.13569338619709015, 0.022019043564796448, 0.08551767468452454], [-0.034697458148002625, -0.1750497817993164, -0.2818995416164398, -0.02532609924674034, -0.020633514970541], [-0.026812100782990456, -0.26033419370651245, -0.11635904759168625, -0.0746200755238533, 0.12036018073558807]], [[0.11322253942489624, -0.01645844057202339, -0.35891860723495483, -0.4339442849159241, 0.19548426568508148], [0.5181702971458435, 0.19806110858917236, -0.3152570128440857, -0.45546141266822815, 0.13290606439113617], [0.46864694356918335, 0.1817232072353363, -0.005132962949573994, 0.4751425087451935, 0.6695231795310974], [0.24556320905685425, 0.10617318004369736, 0.15073180198669434, 0.23701554536819458, -0.3925253748893738], [0.035810768604278564, 0.24751143157482147, -0.06788159906864166, -0.5580564141273499, -0.554572582244873]], [[0.08420899510383606, 0.04970995709300041, 0.06794853508472443, 0.06061040610074997, -0.004215023014694452], [-0.012950873002409935, 0.05094980448484421, 0.2610394060611725, 0.023915328085422516, -0.12679503858089447], [-0.07516565918922424, -0.1813049018383026, -0.11936571449041367, -0.1830245554447174, -0.05401952192187309], [-0.051997110247612, -0.04064413532614708, -0.14476381242275238, -0.45773249864578247, 0.012484554201364517], [0.10640227794647217, 0.0646083876490593, -0.12682248651981354, 0.1256893277168274, 0.16142357885837555]], [[-0.0725003182888031, 0.03078712895512581, -0.367300420999527, 0.0505872443318367, 0.29986122250556946], [0.3280445635318756, 0.042337674647569656, -0.06700337678194046, -0.2849234640598297, 0.24245302379131317], [0.4158359169960022, -0.0750805139541626, -0.157281294465065, 0.16845305263996124, 0.08587026596069336], [0.2117878496646881, -0.038544461131095886, -0.15658535063266754, 0.6170260310173035, 0.1643047034740448], [0.10984537750482559, 0.4761401414871216, -0.09006121009588242, -0.13683076202869415, 0.09343928843736649]], [[-0.01038943137973547, -0.14429093897342682, 0.09426272660493851, -0.009033807553350925, 0.08958128839731216], [0.010059681721031666, -0.03151702880859375, -0.059364814311265945, -0.1333720088005066, 0.05470241233706474], [-0.2411416918039322, -0.19553831219673157, -0.0546693280339241, 0.13746990263462067, 0.2840343713760376], [0.006383425556123257, -0.11353523284196854, 0.16598813235759735, -0.1726306825876236, -0.1369781345129013], [0.0934884175658226, -0.18112069368362427, -0.36451902985572815, -0.21439175307750702, -0.16723744571208954]], [[-0.07095912098884583, 0.12832391262054443, -0.12530821561813354, 0.08451768010854721, 0.03112996742129326], [0.007430188823491335, 0.11099743098020554, -0.04611537605524063, 0.2354860007762909, 0.12328612804412842], [0.2093188315629959, 0.41702061891555786, -0.0051816124469041824, -0.14426112174987793, 0.02895701676607132], [-0.1996704638004303, -0.2674328684806824, -0.15879465639591217, 0.04353511333465576, 0.3281802237033844], [-0.32280054688453674, -0.4116530120372772, 0.06276994943618774, 0.471608966588974, 0.5016693472862244]], [[0.15774448215961456, 0.17101964354515076, -0.038249630481004715, 0.17571528255939484, 0.365606427192688], [-0.08160745352506638, 0.0034178204368799925, -0.006957842502743006, 0.18269869685173035, 0.28996989130973816], [-0.4148886799812317, -0.08377975970506668, 0.08024325221776962, 0.31487971544265747, 0.20429641008377075], [-0.2015674114227295, 0.030206570401787758, -0.09122151136398315, -0.10359720885753632, -0.29180869460105896], [0.0018736704951152205, -0.013263292610645294, 0.05857188627123833, -0.24638617038726807, -0.5783919095993042]], [[0.12827205657958984, 0.23873107135295868, 0.09656181931495667, 0.06201145425438881, 0.19952407479286194], [-0.2297648787498474, 0.009657393209636211, 0.11952755600214005, 0.135316863656044, 0.3026063144207001], [-0.1702776551246643, 0.06592389196157455, -0.09220277518033981, 0.06940972059965134, 0.05603967234492302], [-0.06570983678102493, -0.08103317022323608, 0.23280440270900726, -0.0703030601143837, -0.3643462657928467], [-0.0373346246778965, 0.004855020437389612, 0.022864997386932373, -0.2118583768606186, -0.6778069138526917]], [[0.07589474320411682, -0.03916405513882637, 0.05339229851961136, 0.41980689764022827, 0.12861943244934082], [0.17686539888381958, 0.16910101473331451, 0.12102515995502472, -0.05296866223216057, 0.01674709841609001], [0.1590309888124466, 0.1939513236284256, 0.3136322498321533, -0.19324858486652374, -0.09630775451660156], [-0.29961976408958435, -0.21147097647190094, -0.20179735124111176, -0.15302620828151703, 0.23382720351219177], [-0.245996356010437, -0.21138347685337067, 0.10277704894542694, 0.4275617003440857, 0.4613557457923889]], [[-0.013390514999628067, -0.04969688504934311, -0.11885026097297668, -0.13806591928005219, -0.14432698488235474], [0.014398780651390553, -0.1322885900735855, -0.07435505092144012, -0.22421129047870636, -0.3948018252849579], [0.11544346809387207, 0.02745644934475422, -0.2813091576099396, -0.5668374300003052, -0.14155346155166626], [0.058970268815755844, -0.011347455903887749, -0.2913796007633209, -0.1000233143568039, 0.1988246738910675], [0.03143986687064171, -0.019666917622089386, -0.15991860628128052, 0.23101085424423218, 0.2058674544095993]], [[-0.012605166994035244, 0.04510486125946045, 0.21441112458705902, 0.39327797293663025, 0.37099263072013855], [0.06162380799651146, 0.05136508494615555, 0.14713230729103088, 0.0360088050365448, 0.08690007030963898], [0.12458065152168274, 0.11724644899368286, 0.04991865158081055, -0.1351349949836731, -0.09102887660264969], [-0.2898390293121338, -0.17889268696308136, 0.19641424715518951, -0.1843055933713913, -0.4495219588279724], [-0.2111285924911499, 0.04130604863166809, 0.10843877494335175, -0.10090136528015137, 0.0280833151191473]], [[-0.028737418353557587, -0.09772305935621262, -0.11605072766542435, -0.11264226585626602, -0.05188256502151489], [0.017475349828600883, -0.05259053409099579, 0.09657245874404907, 0.03860167786478996, -0.07637537270784378], [-0.2343263179063797, -0.21708574891090393, -0.18325550854206085, -0.05205555260181427, 0.12592394649982452], [-0.09504640102386475, -0.13569016754627228, 0.02213243395090103, -0.08593499660491943, -0.030255287885665894], [0.11887603998184204, -0.0012400993146002293, -0.06576351076364517, 0.0487360954284668, 0.032995909452438354]], [[-0.034445833414793015, -0.01350532379001379, -0.08386091887950897, 0.3012121021747589, 0.056363895535469055], [0.05426255986094475, -0.06043769791722298, -0.14152055978775024, 0.06175666302442551, -0.15210281312465668], [0.10035305470228195, 0.21155297756195068, -0.06327047944068909, -0.43017008900642395, -0.1925455629825592], [0.0999702513217926, -0.017147691920399666, 0.026464343070983887, 0.12406410276889801, 0.2820626497268677], [-0.05138009786605835, -0.04969152435660362, 0.03772038593888283, 0.42135125398635864, 0.35948804020881653]], [[-0.06734684854745865, 0.08931096643209457, 0.13455933332443237, 0.15672607719898224, 0.42831626534461975], [-0.24788492918014526, -0.2627083659172058, 0.0340459942817688, 0.020188989117741585, 0.5407437086105347], [-0.5277240872383118, 0.07438153773546219, 0.47794997692108154, 0.23090772330760956, 0.13661226630210876], [0.019909203052520752, 0.059460803866386414, 0.17168031632900238, 0.07556633651256561, 0.01102226972579956], [-0.10719845443964005, -0.3181658089160919, 0.024800952523946762, 0.04553341865539551, -0.1510821133852005]], [[0.05726136267185211, -0.07925839722156525, -0.1405993103981018, -0.0027897427789866924, 0.349337637424469], [0.02816316857933998, 0.13656304776668549, 0.12098702788352966, 0.16342408955097198, 0.30682072043418884], [0.023030610755085945, -0.007686429191380739, 0.018367838114500046, -0.07352564483880997, 0.10799242556095123], [-0.31865301728248596, -0.161372572183609, -0.20665088295936584, -0.03376209735870361, 0.16213655471801758], [-0.20850248634815216, -0.08671215176582336, -0.00843739416450262, 0.39242076873779297, 0.06634438037872314]]], [[[-0.1339035928249359, -0.15129335224628448, 0.06495464593172073, 0.5582262277603149, 0.10431071370840073], [-0.2878054082393646, -0.1013358011841774, 0.1062706932425499, 0.4316386878490448, 0.16064302623271942], [-0.22677446901798248, -0.10289046913385391, 0.1173059269785881, -0.035562627017498016, -0.12168119102716446], [-0.10788778215646744, -0.10226857662200928, -0.37669265270233154, 0.009490275755524635, -0.15685085952281952], [0.10541554540395737, 0.09407205134630203, 0.19637589156627655, -0.00973671767860651, 0.08295974135398865]], [[-0.08030274510383606, -0.0031649405136704445, 0.01569214090704918, 0.2492932379245758, 0.01656251586973667], [-0.3461841344833374, -0.1886892318725586, 0.20029377937316895, 0.05967629700899124, 0.042848724871873856], [0.02551388181746006, 0.20224051177501678, 0.1596975326538086, 0.050590019673109055, 0.08461146801710129], [-0.12094203382730484, -0.0707133561372757, -0.2050776481628418, -0.049740828573703766, -0.05356360226869583], [0.09528300911188126, -0.14586883783340454, 0.06147013604640961, -0.08565229922533035, 0.03181198611855507]], [[0.44485563039779663, 0.6321763396263123, -0.12663549184799194, -0.6299586296081543, -0.4182456433773041], [0.21084478497505188, 0.10919351130723953, -0.16186274588108063, -0.28919175267219543, -0.017894409596920013], [0.2620083689689636, 0.09381603449583054, 0.35125482082366943, 0.30339258909225464, 0.5439521670341492], [-0.09891508519649506, 0.21671943366527557, -0.10678961873054504, -0.10174254328012466, -0.1331041157245636], [0.03468863666057587, 0.27893465757369995, 0.23479673266410828, -0.22561611235141754, -0.3065996766090393]], [[-0.013639573007822037, 0.1110958680510521, 0.028677688911557198, -0.0796961635351181, -0.09135647118091583], [0.02995964325964451, -0.13769598305225372, -0.3633638620376587, -0.5309910178184509, -0.24826981127262115], [-0.1244022473692894, -0.03398473560810089, 0.08570177108049393, 0.10999380052089691, 0.05349814146757126], [0.005049028899520636, -0.06340458989143372, 0.1882348507642746, 0.22560296952724457, 0.002349520567804575], [-0.0541224405169487, -0.008669514209032059, -0.20854352414608002, 0.025366177782416344, 0.0902283564209938]], [[-0.08031079173088074, 0.5236918330192566, 0.5309534668922424, -0.10894691199064255, -0.11175209283828735], [0.028720011934638023, 0.2751797139644623, 0.07534152269363403, -0.4365251660346985, 0.037340108305215836], [0.42639172077178955, 0.11065875738859177, 0.6811578869819641, 0.11158101260662079, 0.22389690577983856], [0.08980292081832886, 0.045117828994989395, 0.044835351407527924, 0.13751962780952454, 0.23022688925266266], [0.2405540645122528, 0.549386203289032, 0.0726141557097435, -0.06196943297982216, 0.0716516375541687]], [[-0.044501613825559616, 0.07636616379022598, 0.309654176235199, 0.23846594989299774, -0.06473855674266815], [-0.08386743068695068, 0.17870253324508667, 0.4205944240093231, 0.5839613676071167, 0.22706946730613708], [-0.2513798475265503, -0.18123868107795715, 0.021361682564020157, 0.5947851538658142, 0.18664182722568512], [-0.17116707563400269, -0.2034475952386856, -0.13531628251075745, -0.030062727630138397, -0.11781199276447296], [0.03882545605301857, -0.14008860290050507, 0.051640890538692474, 0.07415881007909775, -0.18955549597740173]], [[-0.022388866171240807, 0.20904485881328583, 0.38784754276275635, 0.18678416311740875, 0.22375021874904633], [-0.4915136396884918, 0.09590045362710953, 0.07026045769453049, -0.1861635446548462, -0.2347438931465149], [0.006193757988512516, 0.3634418845176697, 0.16701146960258484, -0.33219611644744873, -0.40002933144569397], [0.36405643820762634, 0.28483304381370544, -0.11575306206941605, 0.0162490401417017, -0.06369876116514206], [0.023214370012283325, -0.12301618605852127, -0.012915062718093395, 0.021355807781219482, 0.04261625558137894]], [[0.01587849110364914, -0.05471048504114151, -0.19291919469833374, -0.15161672234535217, 0.2583409547805786], [-0.016400855034589767, 0.06469085812568665, 0.020473266020417213, -0.0252369474619627, 0.24092282354831696], [-0.11132985353469849, 0.12037452310323715, -0.3353806138038635, -0.4576069712638855, -0.15486769378185272], [-0.10623980313539505, 0.047695647925138474, -0.06855759769678116, -0.08064531534910202, 0.010728702880442142], [0.04447354003787041, -0.11649972945451736, -0.0718967467546463, 0.005430472549051046, 0.09236561506986618]], [[-0.09754966199398041, -0.060390349477529526, 0.03361103683710098, -0.24744097888469696, -0.16203707456588745], [-0.2795015275478363, -0.030914288014173508, -0.16876287758350372, -0.2517138123512268, -0.006729998160153627], [-0.056792620569467545, -0.025926463305950165, -0.32575076818466187, -0.32576486468315125, 0.05492893233895302], [-0.03396039083600044, 0.09804664552211761, 0.30327069759368896, 0.11794377118349075, -0.0343051515519619], [-0.17268405854701996, -0.17097222805023193, -0.31720471382141113, -0.06635041534900665, -0.3325696587562561]], [[0.1507488638162613, 0.3096553385257721, 0.3560504913330078, 0.3248100280761719, 0.13971754908561707], [0.10641705244779587, 0.3184152841567993, -0.1005852147936821, -0.3174492418766022, -0.2878801226615906], [0.3037641644477844, 0.4107111096382141, 0.06703192740678787, -0.3660449683666229, -0.46993371844291687], [-0.3127157390117645, 0.12033058702945709, 0.09053810685873032, -0.004677671939134598, 0.08488620817661285], [-0.09173940867185593, 0.07143024355173111, 0.1954544186592102, 0.006967689376324415, 0.030860891565680504]], [[-0.03153255581855774, -0.004419820383191109, 0.18045352399349213, 0.09134776145219803, -0.3068374693393707], [-0.050131089985370636, -0.10092411190271378, 0.18129609525203705, -0.28816625475883484, -0.33463165163993835], [-0.009979837574064732, 0.09197672456502914, 0.5191901326179504, 0.1992739886045456, 0.11616640537977219], [-0.06294258683919907, -0.1401374638080597, 0.13214656710624695, 0.29633763432502747, -0.037048619240522385], [-0.04060133174061775, -0.02050723321735859, -0.06036766245961189, 0.07758878916501999, 0.06704457104206085]], [[-0.04587503895163536, 0.369771808385849, 0.44925037026405334, 0.5149793028831482, 0.5823248028755188], [0.10518748313188553, 0.26064416766166687, 0.08085792511701584, -0.1212826818227768, 0.11952599138021469], [0.16028264164924622, 0.1935105323791504, 0.11730796843767166, -0.24520643055438995, -0.22567784786224365], [-0.17681042850017548, 0.09102314710617065, 0.17982791364192963, 0.029242468997836113, -0.21119344234466553], [-0.14826807379722595, -0.1502486616373062, 0.11337415128946304, -0.0020291446708142757, -0.16279631853103638]], [[0.027240369468927383, 0.09525950253009796, 0.013632691465318203, 0.0712805762887001, -0.05212380737066269], [-0.1311248242855072, -0.05066460743546486, 0.33909785747528076, 0.4260885715484619, 0.13795998692512512], [-0.33785131573677063, -0.12827938795089722, 0.2872646749019623, 0.3549644351005554, 0.1300533413887024], [-0.14486148953437805, -0.2793091833591461, -0.16962890326976776, -0.04378429055213928, -0.030806565657258034], [0.05215863138437271, 0.1042875126004219, 0.16835558414459229, -0.0455312542617321, -0.1371515989303589]], [[-0.08662145584821701, -0.041316889226436615, 0.2776228189468384, 0.19203633069992065, -0.1983502060174942], [0.04283706843852997, -0.11850012093782425, 0.05773000046610832, -0.2890092730522156, -0.3676721453666687], [0.061388175934553146, 0.20297619700431824, 0.37490519881248474, -0.16380368173122406, 0.144892618060112], [0.09560859948396683, -0.07090730965137482, 0.18700435757637024, 0.2026386857032776, 0.05043613910675049], [-0.06768761575222015, 0.07159154117107391, 0.03160165250301361, 0.06637562066316605, 0.13594795763492584]], [[-0.5186752676963806, -0.5439056158065796, -0.04928659647703171, 0.5481070280075073, 0.31898877024650574], [-0.022335423156619072, 0.16204556822776794, 0.42575961351394653, 0.2319030612707138, 0.07988078147172928], [-0.1730761080980301, -0.09725037962198257, -0.26822876930236816, -0.7191534042358398, -0.5015717148780823], [-0.014197190292179585, -0.18897058069705963, -0.16674816608428955, -0.0006515028653666377, -0.10389102250337601], [0.03148433938622475, 0.010263768024742603, 0.07286468148231506, 0.0569632463157177, 0.0522809661924839]], [[-0.2162078469991684, -0.22410333156585693, 0.008078541606664658, 0.02283472940325737, 0.20817561447620392], [-0.048933833837509155, 0.09624762088060379, 0.09156202524900436, -0.1079031303524971, -0.2937844395637512], [0.0190739668905735, 0.08692458271980286, 0.09905221313238144, -0.5038116574287415, -0.367045521736145], [-0.21803218126296997, 0.05871039628982544, 0.017123863101005554, -0.17782773077487946, -0.033113110810518265], [-0.08471458405256271, 0.08591219782829285, 0.00014047784497961402, -0.0008514918736182153, -0.08552571386098862]]], [[[0.18553705513477325, 0.15097254514694214, 0.002003026194870472, -0.31117671728134155, -0.11334266513586044], [0.13589654862880707, -0.17491629719734192, -0.12627507746219635, 0.1710710972547531, 0.05080873891711235], [-0.23113442957401276, -0.4004686176776886, -0.31143033504486084, 0.07305803894996643, 0.11699249595403671], [-0.2669382691383362, -0.3257230520248413, -0.18289361894130707, -0.29594722390174866, -0.18682125210762024], [0.04852785915136337, -0.07453553378582001, 0.018340779468417168, 0.19357870519161224, 0.07114659994840622]], [[0.0959332138299942, 0.25779086351394653, 0.1306617259979248, -0.06272560358047485, -0.08962972462177277], [-0.11997876316308975, 0.19552670419216156, 0.21841096878051758, -0.0927174836397171, 0.09871348738670349], [-0.22705422341823578, -0.12786439061164856, -0.10305693000555038, 0.054029468446969986, 0.12044411897659302], [-0.23586787283420563, -0.15862786769866943, -0.3742769658565521, -0.03354121372103691, 0.05748065188527107], [-0.21155962347984314, -0.10631247609853745, 0.08646523952484131, 0.0970568060874939, 0.08698311448097229]], [[-0.08410429954528809, -0.1610768735408783, -0.5083990097045898, -0.34391653537750244, 0.06305857747793198], [-0.018274344503879547, 0.03432073816657066, -0.38010331988334656, 0.009017029777169228, 0.3538844585418701], [0.36541548371315, 0.21063578128814697, -0.17617809772491455, 0.03336551785469055, 0.43341749906539917], [0.6966614723205566, 0.03135452792048454, 0.04763497784733772, 0.24107328057289124, 0.30192387104034424], [0.40126222372055054, 0.27646404504776, -0.30723822116851807, -0.1687551885843277, -0.034758321940898895]], [[0.11884810775518417, 0.23167605698108673, 0.03963659331202507, -0.011912626214325428, -0.002975382376462221], [0.159959614276886, 0.033052876591682434, 0.2710527777671814, -0.0419255867600441, -0.18205960094928741], [-0.03933440521359444, -0.055558040738105774, 0.06039796769618988, -0.11015461385250092, -0.04389304667711258], [-0.09161709249019623, -0.3257502317428589, -0.1363995522260666, -0.2859096825122833, 0.15903663635253906], [-0.1087823212146759, -0.2594607472419739, -0.17340457439422607, 0.15327413380146027, 0.07607268542051315]], [[0.0371314100921154, 0.04975367709994316, -0.01084295567125082, -0.014473811723291874, -0.08173347264528275], [-0.19568587839603424, -0.29742661118507385, -0.45672252774238586, 0.00119828584138304, 0.31415292620658875], [-0.17626222968101501, -0.15060119330883026, -0.3367340862751007, -0.0661829337477684, 0.1472768783569336], [0.02671545185148716, -0.1839245706796646, -0.13553659617900848, 0.03254545107483864, 0.03621119633316994], [0.047986049205064774, -0.19663527607917786, -0.3441844880580902, 0.16024944186210632, 0.027274588122963905]], [[0.06937757879495621, -0.06277940422296524, -0.14800764620304108, -0.31741294264793396, -0.07651554048061371], [0.08628368377685547, 0.048655830323696136, 0.20986485481262207, 0.2234748750925064, -0.03208437189459801], [-0.14694266021251678, 0.053280849009752274, 0.22008593380451202, 0.134211465716362, 0.07642538100481033], [-0.15084390342235565, -0.23291349411010742, -0.2588159143924713, -0.2767883539199829, -0.0720156580209732], [0.09275417029857635, -0.05484684929251671, -0.11742214858531952, 0.026352543383836746, 0.015710262581706047]], [[0.05509182810783386, 0.338083416223526, -0.036933910101652145, -0.2332642525434494, 0.10594331473112106], [0.44781866669654846, 0.261350154876709, -0.12563452124595642, -0.09109356999397278, -0.03346727788448334], [0.06656820327043533, -0.09421952068805695, -0.16385041177272797, -0.12447509169578552, 0.048403300344944], [0.029289061203598976, -0.1661222279071808, 0.06358419358730316, 0.023635677993297577, 0.058953192085027695], [0.06083254516124725, 0.002452976070344448, -0.03428976982831955, 0.11499103903770447, 0.12306679785251617]], [[-0.0125536248087883, -0.05212658643722534, 7.280907448148355e-05, 0.17504090070724487, 0.32702720165252686], [0.04936836659908295, 0.003890948137268424, -0.124222032725811, -0.08019225299358368, 0.03690735995769501], [0.03530193120241165, 0.12196062505245209, 0.2841542363166809, 0.4178870916366577, -0.02234816364943981], [0.40133002400398254, 0.5857581496238708, 0.12816978991031647, 0.03688083589076996, -0.18047645688056946], [-0.43832409381866455, -0.07408978044986725, 0.2655842900276184, 0.0030414615757763386, -0.06598377227783203]], [[-0.013203493319451809, 0.26658549904823303, 0.28774091601371765, 0.18129533529281616, 0.23754265904426575], [-0.03253651037812233, 0.024143071845173836, 0.0738462582230568, 0.115079365670681, 0.022742794826626778], [-0.17196571826934814, 0.26319336891174316, 0.20953379571437836, 0.20869864523410797, 0.018218139186501503], [0.0025487439706921577, 0.05715972185134888, 0.22695541381835938, -0.11891067028045654, -0.09381464868783951], [-0.5282164812088013, -0.1624537706375122, 0.19437459111213684, -0.03078007511794567, 0.019260818138718605]], [[0.14033028483390808, 0.33517661690711975, 0.2143246829509735, -0.3132264316082001, 0.027247384190559387], [0.017552824690937996, 0.08769068121910095, -0.019630754366517067, -0.4547868072986603, -0.060423389077186584], [0.03890370577573776, -0.24872718751430511, -0.3251703977584839, -0.09793268889188766, 0.11914053559303284], [-0.08784770965576172, -0.11892160028219223, -0.15887844562530518, -0.13583703339099884, 0.15174661576747894], [-0.12815243005752563, -0.3832024931907654, -0.1258937418460846, 0.14339999854564667, 0.18688930571079254]], [[0.07873725891113281, 0.33091551065444946, 0.19672290980815887, -0.34832286834716797, -0.23889699578285217], [0.16808204352855682, 0.2415795922279358, 0.08984069526195526, -0.3380454182624817, -0.2831501364707947], [-0.016703389585018158, -0.09986060857772827, -0.6204221844673157, -0.32315436005592346, 0.09035270661115646], [-0.07852356135845184, -0.2369668036699295, -0.4132550060749054, -0.3066551387310028, 0.14166535437107086], [0.06608006358146667, -0.12086793780326843, -0.48897257447242737, 0.05674750357866287, 0.007202835287898779]], [[0.05346493050456047, 0.296475350856781, -0.03243599459528923, -0.0993509367108345, -0.03594594821333885], [0.03044111467897892, 0.06326279789209366, -0.06471816450357437, -0.4764080047607422, -0.2885710299015045], [0.11100674420595169, -0.12919123470783234, -0.00045798480277881026, 0.007985374890267849, -0.28129884600639343], [0.07501639425754547, -0.05654001608490944, -0.25943702459335327, -0.27330249547958374, -0.03801681473851204], [-0.18328575789928436, -0.09679681062698364, -0.07404439896345139, -0.06366442143917084, 0.05184217169880867]], [[0.24841460585594177, 0.03353458270430565, 0.008872617967426777, -0.1799790859222412, -0.14373476803302765], [0.3403661549091339, 0.03651914745569229, -0.00033728263224475086, 0.012356976047158241, -0.06982096284627914], [0.07062964141368866, -0.1216111034154892, -0.49234190583229065, -0.09055130928754807, 0.07117017358541489], [-0.21081243455410004, -0.1893911063671112, -0.15782426297664642, -0.37398794293403625, 0.028260990977287292], [0.013539611361920834, -0.003698022337630391, -0.14997249841690063, -0.039195142686367035, 0.04030139371752739]], [[0.08183728158473969, 0.40274423360824585, 0.33601221442222595, -0.26412948966026306, -0.3518582284450531], [0.10613788664340973, 0.21167869865894318, -0.18467649817466736, -0.2801648676395416, 0.0035198298282921314], [-0.1082887277007103, -0.06404024362564087, -0.35709044337272644, -0.2721562385559082, 0.012930027209222317], [-0.025974847376346588, -0.24774129688739777, -0.11476500332355499, -0.061046067625284195, 0.22537264227867126], [0.08824757486581802, -0.09102083742618561, -0.2049434632062912, 0.16376571357250214, 0.0247546024620533]], [[-0.29538121819496155, -0.1498495489358902, 0.4723493456840515, 0.39773982763290405, 0.3370165526866913], [-0.5931432247161865, -0.22539043426513672, -0.06214912235736847, -0.03419266268610954, 0.11932646483182907], [-0.6502018570899963, -0.28366854786872864, -0.02618752419948578, -0.1486038863658905, -0.07859259843826294], [-0.3040110766887665, 0.14554771780967712, 0.11181265115737915, -0.24108651280403137, -0.13830114901065826], [0.3770052492618561, 0.28223085403442383, 0.26180320978164673, 0.23939506709575653, 0.0740683376789093]], [[0.02819880098104477, 0.3352997899055481, 0.1369343400001526, 0.033228278160095215, 0.33173877000808716], [0.20777694880962372, 0.11494383960962296, 0.017983542755246162, -0.08336535096168518, 0.23739297688007355], [0.3812817633152008, 0.1188848465681076, -0.14964929223060608, -0.1286294311285019, 0.19305895268917084], [0.5555644631385803, 0.17444871366024017, 0.14415310323238373, 0.04427885636687279, 0.06820038706064224], [0.13430841267108917, 0.1508624255657196, 0.0025719190016388893, 0.18179793655872345, 0.13396191596984863]]], [[[0.0023116162046790123, 0.02284826524555683, 0.005532311741262674, -0.36022621393203735, -0.04923601448535919], [0.028718845918774605, -0.0990166962146759, -0.2636023461818695, -0.19148336350917816, -0.04160672053694725], [0.1520167887210846, 0.18979382514953613, 0.0003410685749258846, -0.015923207625746727, -0.08548040688037872], [0.2262495458126068, 0.08472834527492523, -0.06850587576627731, 0.06489349156618118, 0.014703701250255108], [-0.0637379065155983, -0.25522151589393616, -0.2793252468109131, -0.13245268166065216, 0.008466145023703575]], [[-0.013360845856368542, 0.16379046440124512, 0.01632731594145298, -0.22238601744174957, -0.09582694619894028], [-0.10697823017835617, 0.005773477256298065, -0.2030327171087265, -0.18216557800769806, 0.10645478963851929], [-0.04536369815468788, -0.18000082671642303, -0.1274854838848114, -0.2503465712070465, -0.08719552308320999], [0.33078014850616455, 0.21949326992034912, 0.006516347639262676, 0.004198018461465836, -0.09234937280416489], [0.04486972466111183, 0.0968209058046341, -0.1374581754207611, -0.05887666717171669, -0.03997284546494484]], [[0.0048738326877355576, -0.253417044878006, -0.437051385641098, -0.029436567798256874, 0.25012311339378357], [0.15504276752471924, 0.07279197871685028, 0.3015041649341583, 0.37969720363616943, 0.24899114668369293], [0.14117808640003204, 0.018188493326306343, -0.05638621002435684, -0.24517658352851868, -0.3498475253582001], [-0.05519258603453636, -0.1354333758354187, 0.008626071736216545, 0.012555038556456566, 0.09236609935760498], [-0.1425369679927826, 0.13517212867736816, 0.06683941930532455, 0.4812394082546234, 0.24294069409370422]], [[0.04491128772497177, -0.033371731638908386, -0.06019273400306702, 0.0032463190145790577, -0.015434755012392998], [-0.04610518738627434, -0.0774417296051979, 0.04890228435397148, 0.3087783753871918, 0.3084423243999481], [-0.0977630540728569, -0.041231222450733185, 0.19654950499534607, 0.15221601724624634, 0.05312793329358101], [-0.02946353890001774, 0.021639876067638397, -0.28845545649528503, -0.42046698927879333, -0.0923413634300232], [0.1272002011537552, -0.01374004501849413, -0.26724594831466675, -0.3241674304008484, -0.015174556523561478]], [[-0.06407641619443893, 0.0070144133642315865, -0.5790868997573853, -0.31388938426971436, 0.09233979135751724], [-0.05606481060385704, -0.4570692777633667, -0.12459441274404526, 0.4431036114692688, 0.030613139271736145], [-0.08724953234195709, -0.019958004355430603, -0.12744082510471344, -0.03318643197417259, -0.1593489795923233], [0.23467808961868286, 0.09839486330747604, -0.0838233083486557, -0.3048272132873535, -0.1219138503074646], [0.028877075761556625, 0.2141624242067337, 0.15025922656059265, -0.0075685614719986916, -0.26381438970565796]], [[0.03100711852312088, -0.08568497747182846, -0.16028791666030884, -0.04257553815841675, -0.02072915807366371], [0.15071235597133636, 0.03336196392774582, -0.13253305852413177, -0.12887103855609894, -0.13868965208530426], [0.049994442611932755, 0.14743277430534363, 0.1927347481250763, -0.25761571526527405, -0.3283107876777649], [0.16630813479423523, -0.11009939014911652, -0.2377539873123169, -0.11334045231342316, 0.08944071829319], [-0.14321808516979218, -0.17743311822414398, -0.20797748863697052, -0.019728800281882286, 0.22720696032047272]], [[-0.17695194482803345, -0.13182279467582703, -0.3965110778808594, -0.26196056604385376, -0.14940957725048065], [0.16922253370285034, 0.01826670579612255, -0.23144479095935822, 0.1344468593597412, 0.11560335010290146], [-0.23529435694217682, -0.46019941568374634, -0.39433619379997253, 0.37756645679473877, 0.3439576029777527], [0.04796763136982918, -0.033440057188272476, 0.22828039526939392, 0.13266633450984955, -0.02997046336531639], [0.5656262636184692, 0.30692681670188904, -0.09203949570655823, -0.1188877671957016, -0.22034797072410583]], [[0.1398635357618332, 0.2334044873714447, 0.06410577893257141, 0.19826678931713104, -0.004935290198773146], [-0.020514650270342827, 0.09078741073608398, -0.17271476984024048, -0.07787436991930008, -0.2857153117656708], [-0.06098524108529091, -0.010883249342441559, 0.03570959344506264, 0.18114027380943298, 0.13831186294555664], [0.02751351147890091, 0.013581358827650547, 0.12075845897197723, 0.06909149885177612, -0.021877147257328033], [-0.09655284136533737, -0.28397876024246216, -0.31485551595687866, -0.17894433438777924, -0.19510824978351593]], [[0.16411861777305603, 0.30541443824768066, 0.12315014004707336, 0.1814160943031311, 0.17372001707553864], [-0.026152990758419037, -0.023884348571300507, -0.02316887490451336, 0.031306471675634384, 0.007008897140622139], [-0.030904540792107582, -0.10893108695745468, 0.37493273615837097, 0.17534810304641724, -0.05755937471985817], [0.07615438103675842, -0.09475990384817123, -0.14275595545768738, -0.34252679347991943, -0.16214610636234283], [-0.018610944971442223, -0.20034025609493256, -0.5659250617027283, -0.2745867371559143, 0.18128792941570282]], [[0.12366525828838348, -0.17242233455181122, -0.3175794184207916, -0.5974515080451965, -0.25411680340766907], [-0.02035343647003174, -0.4524845480918884, 0.1252247542142868, 0.004718713462352753, 0.11058811098337173], [0.02682117000222206, -0.4253704845905304, -0.02440427802503109, 0.18516884744167328, 0.23084722459316254], [0.42833447456359863, -0.0051986961625516415, 0.14646492898464203, 0.10211881995201111, 0.026139674708247185], [0.2849849760532379, 0.15534089505672455, -0.10060950368642807, -0.25650089979171753, -0.32401150465011597]], [[-0.0062462566420435905, 0.04455085098743439, -0.015974868088960648, -0.20331549644470215, -0.033411089330911636], [0.019418232142925262, -0.04758944362401962, -0.4404369294643402, -0.3295457065105438, 0.16113850474357605], [-0.021235017105937004, -0.33744412660598755, -0.12105283886194229, 0.09536849707365036, -0.14216390252113342], [0.14148440957069397, 0.0755588710308075, -0.10696157068014145, -0.3123645782470703, -0.1530105024576187], [0.12883220613002777, 0.38202422857284546, 0.03401695564389229, -0.06501610577106476, 0.005902270320802927]], [[0.13018396496772766, -0.1382240355014801, -0.25984352827072144, -0.2562757134437561, -0.4138067364692688], [0.1901213377714157, 0.13399162888526917, 0.1873464584350586, 0.057560861110687256, -0.33819857239723206], [-0.0007275295211002231, -0.1866118460893631, -0.050545573234558105, 0.24609902501106262, 0.1563963145017624], [0.13009491562843323, 0.044575903564691544, -0.016813848167657852, -0.25375497341156006, 0.316396564245224], [0.355957567691803, -0.1347566843032837, -0.17065782845020294, -0.14638157188892365, 0.2016247808933258]], [[0.028537416830658913, 0.06098812073469162, -0.02901609241962433, -0.012972651980817318, 0.07947524636983871], [0.1833689957857132, -0.04450809210538864, -0.41680267453193665, -0.3655500113964081, 0.001316501758992672], [0.08707676082849503, 0.28206098079681396, -0.16623888909816742, -0.1505049467086792, -0.06875339895486832], [0.1304614394903183, 0.145711749792099, -0.12177050113677979, 0.08689515292644501, -0.059264156967401505], [-0.025845669209957123, -0.0673583522439003, -0.1402733027935028, 0.0416722446680069, 0.08421994745731354]], [[0.00048709267866797745, 0.07421433925628662, -0.2247380167245865, -0.31453195214271545, 0.0782095193862915], [0.04426325485110283, -0.06109030544757843, -0.27888941764831543, 0.052184559404850006, 0.02671338990330696], [0.039845291525125504, -0.297311395406723, 0.19047701358795166, 0.2625259757041931, -0.18908846378326416], [0.20294472575187683, 0.27712053060531616, 0.10984699428081512, -0.177087664604187, -0.23938621580600739], [0.20238488912582397, 0.35846489667892456, 0.21100471913814545, -0.19696450233459473, -0.22112210094928741]], [[0.3576323390007019, 0.1623295396566391, 0.21999478340148926, -0.3752973675727844, -0.1883762925863266], [-0.011655404232442379, -0.0030760138761252165, -0.19586770236492157, -0.27742573618888855, -0.1734769195318222], [0.3653772175312042, 0.1112716794013977, -0.1751675307750702, 0.2483774721622467, 0.20669430494308472], [0.12348993867635727, 0.20739880204200745, 0.3704589307308197, 0.2738119661808014, 0.3594169616699219], [-0.30203670263290405, -0.31527772545814514, -0.28978589177131653, -0.15312151610851288, -0.17226774990558624]], [[-0.09417222440242767, 0.25157278776168823, 0.041672732681035995, -0.13860435783863068, 0.08804159611463547], [0.19545838236808777, 0.037676967680454254, -0.1535784751176834, -0.09541701525449753, 0.2689055800437927], [-0.008768722414970398, 0.023255551233887672, -0.2999561131000519, 0.44284361600875854, 0.3417157232761383], [0.01779453083872795, 0.048513345420360565, 0.02317057177424431, 0.23489122092723846, 0.009797434322535992], [-0.019778072834014893, -0.1289539784193039, -0.05792124196887016, 0.005031034350395203, -0.03725770488381386]]], [[[0.16623497009277344, 0.08853733539581299, -0.07292589545249939, -0.2097318023443222, 0.1145690381526947], [0.03926730155944824, -0.3091709613800049, -0.2923904359340668, 0.10495984554290771, 0.17256823182106018], [-0.36498087644577026, -0.3899029791355133, -0.3389354944229126, 0.010285811498761177, 0.052222561091184616], [-0.0726112574338913, -0.17118872702121735, -0.07475227117538452, -0.21624436974525452, -0.126141756772995], [-0.10786668956279755, -0.14594629406929016, -0.10389380902051926, -0.007327941246330738, -0.04185221344232559]], [[0.13848015666007996, 0.34092819690704346, 0.11057084798812866, 0.09546419978141785, 0.1295662522315979], [-0.2033635675907135, -0.07529165595769882, 0.27228590846061707, 0.01833013817667961, 0.08235470205545425], [-0.32423532009124756, -0.2189658284187317, 0.03819157928228378, 0.16929005086421967, 0.009723056107759476], [-0.06197270750999451, 0.0823940560221672, 0.010925044305622578, -6.346065492834896e-05, 0.030772553756833076], [-0.02778959833085537, -0.08917595446109772, -0.04699527099728584, -0.04469979926943779, -0.0259346105158329]], [[0.22605794668197632, 0.30967170000076294, -0.6048702001571655, -0.7996835112571716, 0.03563736751675606], [0.43700528144836426, 0.31716838479042053, -0.20564980804920197, -0.32364821434020996, 0.6547122001647949], [0.6964482069015503, 0.49789997935295105, -0.010632663033902645, -0.03704441338777542, 0.5310247540473938], [0.5612069368362427, 0.1278461366891861, -0.005670458078384399, 0.06071038916707039, 0.031846191734075546], [0.13517409563064575, 0.07926859706640244, -0.1628691405057907, -0.15078473091125488, -0.2477552890777588]], [[0.07689233124256134, 0.1799546778202057, 0.11407606303691864, 0.09225128591060638, -0.007594278082251549], [0.13511016964912415, -0.08277764171361923, -0.06347821652889252, -0.246463343501091, 0.1110687404870987], [-0.14833371341228485, -0.2249196469783783, -0.16488228738307953, 0.018894536420702934, 0.023737207055091858], [-0.10177654772996902, -0.14612096548080444, -0.062043994665145874, 0.008937123231589794, 0.2255043238401413], [-0.0332806296646595, -0.23062767088413239, -0.008432921953499317, 0.12065186351537704, 0.07308974117040634]], [[0.18278570473194122, 0.24685868620872498, -0.05072374269366264, -0.005877515766769648, 0.3245622515678406], [-0.04914233833551407, -0.11399584263563156, -0.35305485129356384, -0.036353614181280136, 0.4629642963409424], [0.17175474762916565, 0.1156553104519844, -0.00675964867696166, -0.14517274498939514, 0.16056562960147858], [0.34035027027130127, 0.09710738062858582, 0.1554708033800125, 0.004584485199302435, 0.181424081325531], [0.018851175904273987, -0.06718885153532028, -0.13057340681552887, -0.040959764271974564, -0.11232060194015503]], [[0.03492961823940277, -0.11017897725105286, -0.11246486753225327, -0.24487917125225067, -0.08593610674142838], [0.04773440584540367, -0.21999824047088623, -0.2178284376859665, 0.06980312615633011, 0.06731300055980682], [-0.27350425720214844, -0.0595582015812397, 0.002320109400898218, 0.15634092688560486, 0.0776262879371643], [-0.04994326829910278, -0.1443203240633011, -0.13178005814552307, -0.06655651330947876, -0.040100812911987305], [-0.041570208966732025, -0.15924479067325592, -0.1751272827386856, -0.0693531408905983, -0.08602740615606308]], [[0.04015668109059334, 0.5537882447242737, 0.28416094183921814, -0.09256716072559357, -0.027428068220615387], [0.4656107723712921, 0.4572932720184326, -0.025488149374723434, 0.032553162425756454, -0.19292470812797546], [0.16460052132606506, 0.2502855956554413, -0.04655616730451584, -0.10035876929759979, -0.0275300070643425], [-0.0633305013179779, 0.07770982384681702, -0.0016324627213180065, 0.044929686933755875, 0.026032516732811928], [0.13934025168418884, 0.10405708104372025, -0.10658479481935501, 0.08611688762903214, 0.17314879596233368]], [[0.0473518893122673, 0.25459182262420654, 0.03953208401799202, 0.10799557715654373, 0.22166894376277924], [0.04232397302985191, 0.043247487396001816, -0.10312160104513168, -0.013071573339402676, -0.0174008309841156], [-0.2032415270805359, -0.015240689739584923, 0.06336827576160431, 0.12500067055225372, -0.12018188089132309], [-0.050958748906850815, 0.21407701075077057, -0.10703811794519424, -0.19008900225162506, -0.3483932912349701], [-0.251079797744751, -0.10016640275716782, 0.05691283196210861, 0.03933904692530632, -0.005972349550575018]], [[0.024894215166568756, 0.2490040361881256, 0.2473616600036621, 0.04250865802168846, 0.11900041997432709], [-0.18126146495342255, -0.08595658838748932, -0.034191906452178955, 0.007437124382704496, 0.07228688895702362], [-0.2714988887310028, -0.056609828025102615, 0.014918215572834015, 0.02086918242275715, -0.013772825710475445], [-0.1179051548242569, -0.10636229068040848, -0.1049218401312828, -0.13210678100585938, -0.09469117969274521], [-0.30626344680786133, -0.05521514266729355, 0.04745037481188774, -0.01184022706001997, -0.022941023111343384]], [[0.37762346863746643, 0.36567550897598267, 0.4063340425491333, 0.07608263939619064, 0.05939515307545662], [0.12605950236320496, 0.28180649876594543, 0.14761322736740112, -0.3811672031879425, -0.25787705183029175], [0.00663013244047761, 0.02128581702709198, 0.025062091648578644, -0.07382809370756149, -0.00020270876120775938], [0.030656496062874794, 0.32320982217788696, 0.12160962074995041, -0.11257226765155792, 0.06625469774007797], [-0.13364993035793304, -0.0874413549900055, -0.05943076312541962, 0.01934145949780941, 0.09740849584341049]], [[0.14118704199790955, 0.267502099275589, 0.033242542296648026, -0.20580613613128662, -0.12257872521877289], [0.16828890144824982, 0.11874870210886002, 0.0636044293642044, -0.10440951585769653, -0.16401681303977966], [0.08858449012041092, -0.11646951735019684, -0.2583860754966736, 0.05021340027451515, 0.1891089677810669], [0.06195441633462906, -0.14502201974391937, -0.071764275431633, -0.17227502167224884, 0.26398393511772156], [0.11487408727407455, 0.08506706357002258, -0.11167129874229431, -0.0219584908336401, 0.05826603248715401]], [[0.2128967046737671, 0.24458539485931396, -0.03367959335446358, -0.07190214842557907, -0.04580230265855789], [0.15150338411331177, 0.04387526959180832, -0.1805706024169922, -0.5625503063201904, -0.25558894872665405], [0.0652492418885231, -0.13349652290344238, -0.03317151963710785, -0.03761548176407814, -0.39858195185661316], [-0.028079822659492493, 0.1234615221619606, -0.10067926347255707, -0.10551594197750092, -0.004334199707955122], [-0.05080780014395714, 0.0904860720038414, 0.12604984641075134, -0.13507209718227386, 0.079251229763031]], [[0.19933459162712097, 0.1867259293794632, 0.08439722657203674, -0.07247033715248108, -0.08892027288675308], [0.1581551879644394, -0.21617573499679565, -0.2960740625858307, -0.058057963848114014, 0.16677814722061157], [-0.06737805157899857, -0.15575744211673737, -0.6006640791893005, -0.1254531592130661, 0.05180145800113678], [-0.015046091750264168, -0.04815955460071564, -0.042131584137678146, -0.017877714708447456, 0.04819851368665695], [0.03402288630604744, -0.09146056324243546, -0.166644886136055, -0.07451137155294418, 0.005357753951102495]], [[0.2973387539386749, 0.44196122884750366, 0.2845688760280609, 0.08639959990978241, -0.15775570273399353], [0.2945055067539215, 0.17072127759456635, -0.16961683332920074, -0.13107764720916748, 0.03300219029188156], [0.0876459926366806, 0.05798511579632759, 0.09886734932661057, -0.0013812687247991562, -0.007638031616806984], [0.1579706370830536, 0.04583078250288963, 0.18604829907417297, -0.03210093826055527, 0.16468839347362518], [0.13483303785324097, 0.14922434091567993, 0.03995736688375473, 0.052115973085165024, -0.055249348282814026]], [[-0.5387410521507263, -0.5166559219360352, 0.08929043263196945, 0.10804318636655807, 0.3982824981212616], [-0.6968132853507996, -0.52740079164505, -0.2865507900714874, -0.1419122964143753, -0.13918635249137878], [-0.5385846495628357, -0.3198262155056, -0.15218833088874817, -0.22391442954540253, -0.05834193155169487], [-0.17310187220573425, 0.02255857177078724, 0.18009614944458008, -0.3356028199195862, -0.27168720960617065], [0.1827651411294937, 0.03711361065506935, 0.07800181210041046, 0.0043196347542107105, 0.061635591089725494]], [[-0.03941618278622627, 0.4305950999259949, 0.39528772234916687, 0.03912517800927162, 0.16801227629184723], [0.04063153266906738, 0.34061166644096375, 0.2417159527540207, -0.06805557012557983, 0.06950245797634125], [0.3595449924468994, 0.3118473291397095, -0.1002235859632492, -0.1275765299797058, 0.023249907419085503], [0.11679305136203766, 0.25319787859916687, 0.025424741208553314, 0.04812555015087128, -0.024129323661327362], [-0.007503032684326172, 0.039472028613090515, -0.016252489760518074, 0.19646687805652618, 0.14872205257415771]]], [[[0.023062318563461304, 0.1742066740989685, 0.006331501994282007, -0.21074071526527405, -0.12652984261512756], [-0.15505751967430115, 0.0064928182400763035, 0.3586965799331665, 0.013538610190153122, -0.11604191362857819], [-0.03750605508685112, 0.23522350192070007, -0.10515674203634262, -0.48194319009780884, 0.05884939432144165], [-0.032529816031455994, -0.16936728358268738, -0.051321592181921005, -0.03993288427591324, -0.14660461246967316], 